{"layers":[{"out_depth":1,"out_sx":28,"out_sy":28,"layer_type":"input"},{"sx":5,"sy":5,"stride":1,"in_depth":1,"out_depth":12,"out_sx":24,"out_sy":24,"layer_type":"conv","l1_decay_mul":0,"l2_decay_mul":1,"pad":0,"filters":[{"sx":5,"sy":5,"depth":1,"w":{"0":-0.31258899929518186,"1":-0.5507593503896117,"2":-0.8362880887483867,"3":-1.1798864066443884,"4":-0.7807379327565466,"5":0.5225161415270007,"6":0.005429628149814212,"7":-0.049780978831438366,"8":-0.02356755607492608,"9":-0.5350256136144121,"10":0.7619049450272968,"11":0.6160865136420197,"12":0.5891740783398841,"13":0.48884620786556493,"14":-0.052752203064737435,"15":0.47118669585059025,"16":0.5411127814635587,"17":0.22996213753141168,"18":0.23211067564904314,"19":0.31599559149744055,"20":-0.0993944195657057,"21":0.03820755977717622,"22":0.2580244738969423,"23":0.12313149112716573,"24":-0.15874731105964757}},{"sx":5,"sy":5,"depth":1,"w":{"0":-0.6056777773124377,"1":-0.7525691047490428,"2":-0.06500487361755228,"3":-0.13166412865990645,"4":-0.047053306302082806,"5":-0.4945756489345925,"6":-0.2291850772307508,"7":0.02199849034319963,"8":0.0613812112619263,"9":0.10578863958003819,"10":-0.409793511329283,"11":-0.03707081358895553,"12":0.23333393880283076,"13":0.1637026770285222,"14":0.13743462060611164,"15":-0.15414737307585177,"16":0.17458190376727012,"17":0.27775847897472217,"18":0.665852054785663,"19":0.4084039253124147,"20":-0.14792651985786837,"21":0.2242444884671616,"22":0.24354460704925013,"23":0.38817373248797493,"24":0.2709779554941223}},{"sx":5,"sy":5,"depth":1,"w":{"0":-0.39190769687482524,"1":-0.29388501918549537,"2":0.15660184424575543,"3":-0.24676881157669403,"4":-0.44593077250589147,"5":-0.047569250725415506,"6":0.15831145613678524,"7":-0.0007117437484874345,"8":0.21021053581698776,"9":0.07373668546975709,"10":0.4220680285005153,"11":0.20109741981227386,"12":0.22585929801855212,"13":-0.03353217047931039,"14":0.35556731725057933,"15":0.19435847178962123,"16":0.04217785811988545,"17":0.14286611703240146,"18":0.34322629261018867,"19":0.07281579395535608,"20":-0.18200788965465275,"21":-0.16328607991908867,"22":-0.19196386909934968,"23":-0.4454806600913711,"24":0.021085913778787175}},{"sx":5,"sy":5,"depth":1,"w":{"0":-0.025540140809535393,"1":0.47720893767948147,"2":-0.34086718856997833,"3":0.12276696337592628,"4":-0.18196204198174976,"5":0.04766729265260579,"6":0.30349370828336997,"7":0.010428282193007853,"8":0.00560280636052133,"9":-0.11360593444491232,"10":0.24626906698476506,"11":-0.11230562503147103,"12":0.04553091024271862,"13":-0.24568427118810493,"14":-0.06469636858969227,"15":0.11134197038707752,"16":-0.1332367422730952,"17":-0.14963055677109746,"18":0.2941625645654757,"19":0.07132986005837198,"20":-0.7057422593555589,"21":-0.10482793143838863,"22":0.36608067206985767,"23":0.3977039228077197,"24":-0.10816916541126853}},{"sx":5,"sy":5,"depth":1,"w":{"0":0.07228447653974018,"1":0.14076358295041633,"2":0.05045848625347128,"3":-0.31343048893525866,"4":-0.09500365848029192,"5":0.3897314860604539,"6":0.13883925054395657,"7":0.1824166288914049,"8":-0.20937100230260658,"9":-0.32938874861823586,"10":0.02955590031976878,"11":0.17319613608804194,"12":-0.26094735979281836,"13":-0.3288698708777851,"14":0.23145717762530735,"15":0.4857914645983438,"16":-0.2821367049627274,"17":-0.7482692214274115,"18":-0.44595053166624704,"19":0.4062944173580615,"20":-0.43502615743037576,"21":-0.2518607766702213,"22":-0.531681660508559,"23":0.43219107408065965,"24":0.7746213659067642}},{"sx":5,"sy":5,"depth":1,"w":{"0":0.4159761182784826,"1":-0.12900372098850563,"2":0.2455589971003815,"3":-0.2989113298272472,"4":-0.11931934457486451,"5":0.5505542181961406,"6":0.28046192538201437,"7":0.14402353083831962,"8":-0.20470519259410586,"9":-0.2100453511029148,"10":0.032139618431366083,"11":0.4938608603486974,"12":0.5032999117965059,"13":0.48430863128793156,"14":-0.1930968715812906,"15":0.1164017511238096,"16":0.027215860750642765,"17":0.39116771429330416,"18":0.4762779427321666,"19":0.34816166997756937,"20":-0.13681386203227894,"21":-0.12850663648578262,"22":-0.15947866788256673,"23":0.18715068736034918,"24":0.3768076217404363}},{"sx":5,"sy":5,"depth":1,"w":{"0":0.20945891974614356,"1":0.2681676452649971,"2":0.37307970894895975,"3":0.5323992812579676,"4":0.5542591109524676,"5":0.1390321400905992,"6":0.3869822296469046,"7":0.33357917543302484,"8":0.6957947144857041,"9":0.396735549544921,"10":-0.04710625980679889,"11":-0.04447123697527842,"12":-0.239896087854569,"13":-0.3102283067483929,"14":-0.1482650068956044,"15":-0.6499789150179263,"16":-0.2621464380187884,"17":-0.7354061627497525,"18":-0.7607840293039149,"19":-0.8615251349679147,"20":-0.31347387576135266,"21":-0.23649183056115433,"22":-0.25681370241269347,"23":0.07316308934452029,"24":-0.04505251714830591}},{"sx":5,"sy":5,"depth":1,"w":{"0":-0.2675491494991619,"1":0.029314153267355942,"2":0.27260534119313756,"3":0.3654880858408216,"4":-0.06172266783982512,"5":-0.5398361634976492,"6":-0.7126003381461786,"7":-0.6693831459031945,"8":-0.5661246324334562,"9":-0.6708332806735727,"10":-0.4011623752566466,"11":-0.4951605285666878,"12":-0.7722296581770755,"13":-0.9130014909086498,"14":-0.49917544067044933,"15":0.5444983623787832,"16":0.09092346830661908,"17":0.3613943030415032,"18":0.36461994033522177,"19":0.26640281448597136,"20":0.7130495041725743,"21":1.0044447521522035,"22":0.811123680298079,"23":0.6575128597759968,"24":0.4211606608206312}},{"sx":5,"sy":5,"depth":1,"w":{"0":0.052922208650306495,"1":-0.12800200829890815,"2":-0.30209525392510217,"3":-0.22045789979779806,"4":-0.20828523320704903,"5":-0.2918572758832042,"6":-0.821493737379487,"7":-0.9660296252677193,"8":-0.21440304973696653,"9":0.896026078140823,"10":-0.4635243764051938,"11":-0.20427248772686166,"12":-0.17238310356464792,"13":-0.21311472351574978,"14":0.409248485288089,"15":0.2069643042941644,"16":0.7536318971169406,"17":0.009536863652383668,"18":-0.3744973072187315,"19":-0.5690914261957369,"20":0.20480278474905741,"21":0.19109522873421034,"22":-0.16344015066611847,"23":-0.8001830049707468,"24":-1.2010897109613097}},{"sx":5,"sy":5,"depth":1,"w":{"0":-0.2533482506281251,"1":-0.1415692482301849,"2":-0.0304497259959893,"3":-0.07611309947100957,"4":0.521068420234881,"5":0.15273191000751882,"6":-0.3323701345030173,"7":-0.3917571904255687,"8":0.058095719904109604,"9":0.6645053850198055,"10":0.29951420808876117,"11":0.007626746532689577,"12":-1.159371371330958,"13":-0.12561237029914793,"14":0.7443769951189225,"15":0.4782128403846142,"16":0.4112344913444734,"17":-0.7277998439285608,"18":-0.6663922105888287,"19":0.13719354310589402,"20":0.4368692877431068,"21":0.5707275159166998,"22":-0.15899456891229233,"23":-0.551353620963703,"24":0.1048473303793553}},{"sx":5,"sy":5,"depth":1,"w":{"0":-0.8448357990078919,"1":-0.47153092832395416,"2":0.14620105639562042,"3":0.9090534963325786,"4":0.5286041294823155,"5":-0.32985945681331236,"6":-0.5806000520165567,"7":-0.5474627466495495,"8":0.37288099520080825,"9":0.7141251615874153,"10":-0.26467131474967504,"11":-0.4088911051115001,"12":-0.8298379778784564,"13":-0.5012462765223702,"14":0.3288793146910975,"15":0.2013872015589808,"16":-0.11615536026336382,"17":-0.4586161215171239,"18":-0.5968224255016792,"19":-0.5374039013928965,"20":0.25884642339226804,"21":-0.05467357843529154,"22":0.0655221235649983,"23":-0.3945896319821101,"24":-0.4458577046955559}},{"sx":5,"sy":5,"depth":1,"w":{"0":-0.06990230236928456,"1":0.14190628404622296,"2":-0.25788117780038444,"3":-0.3490733436133922,"4":-0.9371705351908657,"5":0.14040382573479798,"6":0.27774272553890395,"7":0.07485324253981737,"8":-0.16529156570466494,"9":-0.6365464703185306,"10":0.6683535340944142,"11":0.26425731164597865,"12":0.45981005948185516,"13":-0.344429249344263,"14":-0.8558117520119334,"15":0.6200180638944439,"16":0.3035157270912629,"17":0.1167062176900846,"18":-0.5002042206623022,"19":-0.49638014380236845,"20":0.6633659657964932,"21":0.5495544576354108,"22":-0.4149825314303154,"23":-0.9403248705590466,"24":-0.7437415072182508}}],"biases":{"sx":1,"sy":1,"depth":12,"w":{"0":-0.39738189601957996,"1":-0.2047844987509364,"2":-0.11402153855396087,"3":-0.150419932483734,"4":-0.09282781432652874,"5":-0.8434600188037723,"6":-0.014400016866945435,"7":-0.3426988780648819,"8":-0.14364583075336684,"9":-0.5127154919829497,"10":-0.16920961012914532,"11":-0.28737599353172033}}},{"out_depth":12,"out_sx":24,"out_sy":24,"layer_type":"relu"},{"sx":3,"sy":3,"stride":3,"in_depth":12,"out_depth":12,"out_sx":8,"out_sy":8,"layer_type":"pool","pad":0},{"out_depth":96,"out_sx":1,"out_sy":1,"layer_type":"fc","num_inputs":768,"l1_decay_mul":0,"l2_decay_mul":1,"filters":[{"sx":1,"sy":1,"depth":768,"w":{"0":0.016220839378295857,"1":0.08357029547943053,"2":0.015953917481774518,"3":-0.013393230036333175,"4":-0.026167306393336687,"5":0.031260607330179734,"6":-0.026986354519176855,"7":-0.003219334552800151,"8":0.023743438462334152,"9":0.019451399815813484,"10":0.01617669420284469,"11":-0.00565202878354236,"12":-0.01671883961369941,"13":0.05595388699758041,"14":-0.013880948964920354,"15":0.027131169350666527,"16":0.058417543116638,"17":-0.031121415387848964,"18":0.025731762142391142,"19":-0.01783674043113119,"20":-0.02720556605122194,"21":-0.026792017915449096,"22":-0.027109673857930033,"23":0.04976100527776241,"24":-0.03191129549765631,"25":0.004072569495165112,"26":0.011484479743844133,"27":0.012511059174493524,"28":-0.042034426134199165,"29":0.046068759073288126,"30":-0.02749437583269487,"31":0.016091493656113228,"32":0.034324862997284565,"33":0.058495378411966684,"34":-0.0011139636464250024,"35":-0.02911723558139931,"36":0.053859290783271015,"37":-0.013334452775301953,"38":-0.023971077161293715,"39":-0.04038764364632321,"40":-0.020697789186961173,"41":-0.02090337319759441,"42":-0.0407516770487869,"43":0.04044190379832833,"44":-0.020924906713132692,"45":0.029368422067068935,"46":-0.004075756464112247,"47":0.001596432035320296,"48":0.016074919555714832,"49":0.10154983563400488,"50":-0.02467889996298025,"51":-0.014370274727122554,"52":-0.026321399835811082,"53":-0.02490747286624079,"54":-0.054382448953471885,"55":0.02128837243360034,"56":-0.012121547349646673,"57":0.011173201454773804,"58":-0.0483212250650177,"59":0.024294118641907,"60":-0.02262508669909134,"61":-0.004459957813352314,"62":-0.03586902183127001,"63":-0.013936238076954195,"64":0.022431669584147586,"65":-0.0012175948121236197,"66":0.031363835529399066,"67":0.028252671333384292,"68":0.04495960555169559,"69":-0.06668314521028941,"70":-0.028400557688157392,"71":0.015039764626953426,"72":0.011934685183461625,"73":-0.04645773373443023,"74":0.011473136083042483,"75":0.03547142301196412,"76":-0.0699670991878884,"77":0.005560542346249034,"78":0.0044593696781635075,"79":-0.0031091612023295147,"80":-0.02763117418580512,"81":0.0032362145494096257,"82":-0.011012043204257027,"83":0.05379019128274325,"84":-0.05085961033751882,"85":-0.05477189496902909,"86":-0.04115592663638983,"87":-0.07059164542754384,"88":-0.039384152764164716,"89":-0.023704486376478352,"90":0.007107720763536253,"91":-0.024252404646699737,"92":0.04137898247130401,"93":-0.0162917943603821,"94":0.0029336802181810866,"95":0.00011762466356052338,"96":-0.024834870308142364,"97":0.004112772853169325,"98":0.04806403166400817,"99":-0.03500574854869594,"100":-0.008027940045292895,"101":0.0007937959404422382,"102":-0.03643554708802481,"103":-0.04066000487973415,"104":0.03915092715535982,"105":-0.11182463648471637,"106":-0.004871701225046745,"107":-0.01369190156139723,"108":0.003371133528080301,"109":0.006559561286243464,"110":0.03319383100732843,"111":0.02201802498077356,"112":-0.0003940360257464541,"113":0.03540484618603317,"114":-0.022512495858122858,"115":-0.016150914257362092,"116":-0.002483558545711261,"117":-0.03486482865681655,"118":0.03686705275475534,"119":-0.01427480156820569,"120":-0.07223355797961813,"121":0.017605936692773796,"122":0.04694012516602257,"123":0.001912762516186301,"124":0.03091978190419126,"125":-0.057411860682815154,"126":0.023745748361024503,"127":0.04212852217341064,"128":0.027750452947034033,"129":-0.03725128598493977,"130":0.019625417876472637,"131":0.04121056612728275,"132":0.041772283101696506,"133":0.03475390803622324,"134":0.004993407343301892,"135":-0.07528892773793783,"136":0.013594193085203723,"137":-0.00395167364651404,"138":-0.000477222867472999,"139":0.03748690571227851,"140":0.005365801215940488,"141":-0.03568321452783896,"142":0.05315271679255204,"143":0.029562877048304136,"144":0.013423466140373643,"145":-0.002556268768132874,"146":0.0013033695272816521,"147":0.03871960870273983,"148":0.03294908002363259,"149":0.02102083997482383,"150":0.005103843691339088,"151":-0.013262839441364166,"152":-0.03965387012495593,"153":0.004031747358140988,"154":-0.04344240460269559,"155":0.02649258878612805,"156":0.0350172798505701,"157":-0.0022571998100333465,"158":0.01563017110756578,"159":0.004052582611829679,"160":0.05541418535285063,"161":0.008263260796226619,"162":-0.030794096045758005,"163":-0.01251241317865216,"164":-0.019503117754545184,"165":-0.06255888216077737,"166":-0.05753179741934724,"167":0.001082303286482452,"168":-0.017431564183168952,"169":0.0036632880588892023,"170":-0.03147118344576368,"171":-0.02791901417876077,"172":-0.07754062806213942,"173":-0.008383930948539198,"174":0.012586891558486017,"175":0.055934331505997414,"176":-0.0269797651117001,"177":0.02739047132748667,"178":-0.06248991667664296,"179":0.07973743167842272,"180":-0.009406712387501947,"181":-0.03549335478266517,"182":-0.03421917281823802,"183":0.008919811832241336,"184":0.012003445533823069,"185":-0.004457422010665541,"186":-0.07487664726491457,"187":-0.04493372270142138,"188":0.0007269044530808142,"189":0.002336401645736401,"190":-0.06284942953673708,"191":-0.026883204866880825,"192":0.029422935376896636,"193":-0.016184033827536436,"194":-0.002456470198488144,"195":-0.0047041791222102005,"196":-0.10053810306398625,"197":0.006580965474885788,"198":-0.003029131844383005,"199":-0.010438735853246095,"200":-0.04912267239672308,"201":0.03749436925372416,"202":0.006016210205872007,"203":0.1011307003894642,"204":-0.007669872481264306,"205":-0.023312447696054298,"206":0.01780447564307568,"207":-0.036937875593394495,"208":-0.028235591461177115,"209":0.006305849065334102,"210":-0.04679367099782885,"211":-0.008247597593809832,"212":-0.052396084733085255,"213":-0.032259980289232944,"214":0.021325268082178182,"215":-0.013616785201634174,"216":-0.029226452013747885,"217":-0.06529179797208098,"218":0.01958146668090706,"219":0.03685237825197266,"220":-0.049324192425532806,"221":-0.03355179986002475,"222":0.06105518905712162,"223":0.012987744534437975,"224":0.024585954338586378,"225":0.01569396914186375,"226":-0.003615635089614761,"227":0.016835198106071814,"228":0.043324063205292376,"229":0.059095000905907566,"230":-0.07969810338858507,"231":-0.035486868798664806,"232":-0.06013813231904994,"233":-0.021341953486949262,"234":0.04218180005092278,"235":0.023680538134824094,"236":-0.09454604619555715,"237":0.012531509339284373,"238":0.059730692726817164,"239":0.00012493785628090693,"240":-0.004052534511674062,"241":-0.023990813910476215,"242":0.01107993233435228,"243":0.009817615774320996,"244":0.05569241372603033,"245":-0.10333588956372637,"246":-0.0065189619887512954,"247":0.03931813743812233,"248":-0.05563036456617258,"249":-0.005981926956134516,"250":0.002055296655977062,"251":-0.05519850922557974,"252":0.008751324997266805,"253":-0.06735609284985895,"254":-0.04141322919698782,"255":-0.07515970819363237,"256":-0.033579084995212935,"257":-0.012084635726125807,"258":-0.07860562026642637,"259":0.023972707290896678,"260":-0.013192773798668199,"261":-0.06663024448295875,"262":-0.059773467924718424,"263":-0.019614689315478107,"264":0.020020711136039142,"265":0.04848066983476451,"266":0.04512042429513339,"267":-0.013770964498713985,"268":0.03575382458420789,"269":-0.0736640237898738,"270":0.02813728900526574,"271":0.026656140511106544,"272":-0.017759771638944103,"273":-0.07320508707719739,"274":0.029589368356959318,"275":-0.01733889658670959,"276":-0.030773087772150362,"277":-0.04311889931094553,"278":0.034037791962142364,"279":-0.028767188660156647,"280":-0.011935022120766057,"281":0.010071088614914694,"282":0.03697713209531087,"283":-0.005285188798310169,"284":-0.029180314614041906,"285":-0.06236459769933756,"286":0.010705437807680301,"287":0.033750804031335624,"288":-0.0037582269184835253,"289":0.06411701605158952,"290":-0.017653153666597327,"291":0.017645213519723462,"292":-0.018824983091204783,"293":-0.0082450252445998,"294":-0.01924282104098475,"295":0.007916729772376717,"296":-0.01982330334243129,"297":-0.06492633168470727,"298":0.03460133715161861,"299":-0.018968529049645695,"300":-0.007843130275662009,"301":0.09771298247143786,"302":0.016222326644623312,"303":0.024886064132230965,"304":-0.04472738745801153,"305":-0.08430558509198695,"306":-0.006820798026724922,"307":-0.031185239467688586,"308":0.026629540311442226,"309":-0.03435483179284654,"310":0.06169220683086552,"311":-0.030846187996507585,"312":-0.00557421192553306,"313":-0.027102424650735337,"314":-0.0016644183037912007,"315":0.013988359162856847,"316":0.04923858094946552,"317":-0.030638981407035058,"318":0.041000570926673426,"319":0.013091600242483572,"320":-0.035085243527590806,"321":0.009812720959237305,"322":0.02037115127551346,"323":0.06785456901353436,"324":0.08261320739325442,"325":-0.03530729732143027,"326":-0.055133583616948235,"327":-0.04665104041517876,"328":0.035191751646264015,"329":-0.008215295304615873,"330":-0.014553413083668204,"331":0.04055278735702252,"332":0.02983389985775021,"333":0.04825445440404084,"334":-0.03170453518925089,"335":-0.03920325045973838,"336":-0.012275426766824513,"337":0.060490272733093126,"338":0.012621077972231259,"339":0.0769531262378218,"340":0.045737659964307426,"341":0.0037940381540685036,"342":-0.04391474878140909,"343":-0.0013224156564891865,"344":-0.02038057421268541,"345":-0.056255198234105755,"346":0.05883330732920199,"347":-0.00632591197621321,"348":0.021424111294893376,"349":-0.019858215734737908,"350":0.04512583535852131,"351":-0.015327199675782669,"352":0.05734084988222919,"353":0.014322076113709966,"354":-0.02319644393382446,"355":0.0056067398741066745,"356":-0.010008866657921748,"357":0.020751699448193908,"358":-0.06851367315258573,"359":-0.024369000847009187,"360":-0.0392613821048145,"361":0.0008503225817016229,"362":-0.005101301273431269,"363":-0.007121207781165256,"364":-0.0375994888039662,"365":0.03759829868809752,"366":-0.08754097861198792,"367":-0.03169683637009851,"368":-0.009744746192047142,"369":-0.08554982500039726,"370":0.05814342192760825,"371":-0.01120103897292103,"372":-0.053031461808022096,"373":0.01435827130021432,"374":0.005727527281018074,"375":0.004847199317731534,"376":-0.03799463696983977,"377":-0.021657612313185318,"378":-0.02571289868114546,"379":-0.002251532162101842,"380":0.051016781813966454,"381":0.007912304719994469,"382":0.055500260170245654,"383":-0.031157304067871854,"384":-0.052164952326677824,"385":0.016974562538094793,"386":0.0034966169349129163,"387":-0.05623203496667323,"388":-0.0005330808065030101,"389":0.05210645100653245,"390":-0.017862551858497337,"391":-0.02861015414576473,"392":-0.030224159471038656,"393":-0.0016496425868326404,"394":0.06295980309290512,"395":0.0750260002727896,"396":0.030399124808686267,"397":0.032652110546248406,"398":0.011245824568204455,"399":-0.03814664612978385,"400":-0.014671474310294372,"401":0.02263781435617538,"402":-0.10505120690501017,"403":-0.001209431033349703,"404":0.001344448695276412,"405":0.009069344384078998,"406":-0.027801895159438695,"407":-0.013614323921964924,"408":-0.05146925554862683,"409":0.010013327413714954,"410":-0.06109826723740719,"411":0.04819568578004143,"412":-0.07458851188777568,"413":0.040974660084434046,"414":-0.0531136805087271,"415":-0.014946927989006556,"416":0.052176781844980265,"417":-0.010066553137358061,"418":0.068524632649477,"419":-0.04473163018763868,"420":0.02876837659308543,"421":0.003779899128288427,"422":0.009634725029806739,"423":-0.050507157829237335,"424":-0.0008262173713337803,"425":0.00723156026915084,"426":-0.012084393877106135,"427":0.017484116357947194,"428":-0.016017961657841282,"429":0.0007886451743185878,"430":0.021529156797991483,"431":-0.017899603377165695,"432":0.028439568354099828,"433":-0.019271331424623967,"434":-0.09245828680198317,"435":0.02393048205491026,"436":0.05277481825791011,"437":-0.04251552160785669,"438":-0.010785677040284828,"439":-0.0012083905427909436,"440":-0.03814764831618973,"441":-0.02976097085520892,"442":-0.050857082610698615,"443":0.03202630223535737,"444":0.021583227357832944,"445":-0.0309555682265568,"446":0.09895928365375807,"447":-0.036377472245991437,"448":-0.06323268102239225,"449":-0.0020203687873814468,"450":-0.03856830712430554,"451":-0.018440950974990877,"452":0.0174677696084853,"453":-0.01911451198950209,"454":-0.031127486198638577,"455":0.006846610632526188,"456":-0.024542623255874932,"457":-0.016500943938126674,"458":0.006732561982393326,"459":-0.058593293457783996,"460":-0.03821133681848124,"461":-0.07140340306289035,"462":0.030636838407848747,"463":0.02873698942477662,"464":-0.02526167346294446,"465":-0.06289964704848894,"466":-0.022954195644207632,"467":-0.017231810762309077,"468":-0.03632002123959474,"469":-0.040963941407670366,"470":-0.028169858993308254,"471":-0.018427283799909204,"472":0.00279325032684926,"473":-0.0018352170795515464,"474":-0.017328493542422184,"475":0.0050560174242165875,"476":0.0692182330057804,"477":0.05826270354668071,"478":-0.052563311913211674,"479":-0.03170201062295858,"480":0.0275681313567883,"481":0.025998541119121525,"482":-0.005007496690940224,"483":-0.02473181079402951,"484":-0.027496748840821168,"485":0.0022728283616547853,"486":-0.04835898440458056,"487":-0.02161324416364462,"488":-0.036774328654850155,"489":-0.01733696592698886,"490":-0.06608121435216978,"491":-0.02397418175716241,"492":-0.01055163549861859,"493":-0.021652121925309225,"494":0.017781397823331747,"495":-0.08317782710431643,"496":-0.019085818463066128,"497":-0.0027945366014533774,"498":-0.002913244160716823,"499":0.009455107486435759,"500":0.024681627525931962,"501":0.01713162071172397,"502":0.0487795011806154,"503":-0.003064872869106744,"504":-0.0020672607861614615,"505":-0.03304546170827162,"506":0.0692721234837056,"507":0.023654340243667443,"508":-0.02395933192587759,"509":-0.01636580138359474,"510":-0.05506067466900114,"511":-0.015246530446934388,"512":0.0418331461405484,"513":-0.044760708964478264,"514":-0.013441521965222483,"515":-0.03054722614738963,"516":0.08599747859141947,"517":0.01202976612206415,"518":0.011093154952993503,"519":0.012532882602893484,"520":-0.02617438192947159,"521":-0.07692204208070548,"522":-0.016250365212692748,"523":0.06395308974339327,"524":0.039244961002769044,"525":-0.014357832479640896,"526":0.02810556788274806,"527":0.04133869945945825,"528":0.0714829075430011,"529":-0.01156634057579649,"530":-0.056698529411321405,"531":0.04274596126704282,"532":-0.03356557974084405,"533":-0.04004808764315111,"534":-0.00423438560777985,"535":-0.0692503692976017,"536":0.02443345229086233,"537":0.022916423531641934,"538":-0.04966653734906344,"539":-0.018254529666326125,"540":0.011562964946260008,"541":-0.011533923437896191,"542":0.03338175407834748,"543":-0.03554147778743542,"544":0.013100969513680744,"545":-0.05660052329031803,"546":0.0121133538103786,"547":-0.013661255946703305,"548":0.03462943942806086,"549":0.08727208249026011,"550":-0.04334048994775419,"551":-0.032616538205275804,"552":0.024457992460549558,"553":0.016659629174387618,"554":-0.02120896319597749,"555":-0.009023696342725037,"556":-0.0001608756763599412,"557":0.0772887402334661,"558":-0.02402558672088925,"559":-0.01902911220539024,"560":0.049678802343115426,"561":0.037340858456021364,"562":-0.008158110771030623,"563":0.01230088669316105,"564":-0.048447962821207995,"565":-0.018215406188619727,"566":0.05118093046893579,"567":0.0022098660387847072,"568":-0.03296576277269797,"569":0.015515131053331176,"570":-0.04069575679821124,"571":0.019248322708366686,"572":-0.0023538836929996075,"573":-0.022552612418854413,"574":0.03986168908883445,"575":-0.029219783746870776,"576":-0.013309545400909058,"577":-0.018494481428950535,"578":0.013659985829737485,"579":0.06272647762495862,"580":0.06506355806320978,"581":-0.003224671465290976,"582":-0.02167557864229418,"583":0.02296809896929781,"584":0.05175102816574898,"585":-0.0402069494370051,"586":-0.005141245563695388,"587":-0.027222364201455445,"588":-0.020575709699720276,"589":0.013809057023719245,"590":-0.07628286186917893,"591":0.02080928011768898,"592":-0.012688914198912908,"593":0.0013513479207763479,"594":-0.026725947001731917,"595":0.02418536136677406,"596":0.020551715387738752,"597":0.020144105387932734,"598":-0.013272383418039952,"599":0.007088539275007443,"600":0.02042200138083225,"601":0.010370106679721628,"602":-0.0003831057721068699,"603":0.0595388298904066,"604":-0.11960474479721943,"605":-0.017110139658262292,"606":-0.044763465490557354,"607":-0.004066396543107213,"608":-0.014326260291813239,"609":-0.017895814674715984,"610":-0.0361532931756965,"611":-0.0034071045064480265,"612":-0.05339491240085598,"613":0.026214478246701436,"614":-0.0026871970444080216,"615":-0.006153788598562542,"616":0.0770926059520466,"617":0.05604838808652553,"618":0.003836152403654127,"619":0.014728582262085678,"620":0.014459213582598615,"621":-0.025990476612187553,"622":-0.019725471142245155,"623":0.023580486245020894,"624":-0.054125685101055615,"625":-0.017793355515591823,"626":-0.04153811615591231,"627":-0.017667576262376868,"628":0.01705552649200863,"629":-0.026829174714457758,"630":-0.03376500863972832,"631":0.0009618385675386448,"632":-0.002520271115561062,"633":-0.027075514524439657,"634":-0.06075487020821159,"635":0.035294492802734646,"636":0.018029656828449345,"637":0.015766109303310898,"638":-0.03027420822347923,"639":-0.05409674346543368,"640":0.017903682844971378,"641":0.010124103277326426,"642":-0.07587172754929032,"643":0.04053908458333721,"644":0.016189431980350825,"645":0.04042872857569641,"646":-0.021575718295774683,"647":0.07035675730417806,"648":0.02043182463795761,"649":0.02160878036435892,"650":-0.02455618571742403,"651":-0.06710356867627779,"652":0.05631925870340442,"653":0.014138996459966843,"654":-0.0642767122221051,"655":-0.021451727544591154,"656":0.04056775032822318,"657":0.03627878368107422,"658":0.028837901598429146,"659":-0.0015814137724335135,"660":-0.016126179844298306,"661":0.010413049911104512,"662":0.024643231378562582,"663":0.02200736319074961,"664":0.029834777283340018,"665":-0.0007648730159081312,"666":0.007132947583972543,"667":0.030241480020100034,"668":0.008967151449307115,"669":0.03353105050947395,"670":0.018452057045570177,"671":-0.0682682270231533,"672":0.02662331123140161,"673":0.04493689282448472,"674":0.03259165261770812,"675":0.007612383183773894,"676":0.038015353414253446,"677":-0.05696739077520096,"678":-0.00784559971408017,"679":0.05073558913996379,"680":-0.009988173896280511,"681":-0.030786254153988776,"682":0.047736006004072774,"683":-0.007066712184330378,"684":0.04303243257477737,"685":-0.017145867937065185,"686":-0.043939056076162664,"687":0.044127780388283716,"688":0.00018552423866299617,"689":-0.034693338341679494,"690":-0.0010653167160796415,"691":0.0346134054631409,"692":0.03787713383864957,"693":-0.007579077617757791,"694":-0.02620533023288746,"695":0.05163934436069312,"696":-0.015541244383260733,"697":0.029062041551687106,"698":0.003830231197217114,"699":0.0017679649920472023,"700":-0.04761979091119632,"701":-0.005037341416388298,"702":0.0005743851316464877,"703":-0.009301412124306307,"704":0.03143725572820075,"705":0.028673995701414455,"706":-0.04001056843771217,"707":-0.01757263848822761,"708":-0.046168929795121966,"709":0.013329733207604923,"710":0.021757897982101055,"711":-0.01016569292691295,"712":0.012713411956342785,"713":-0.004070050661571439,"714":-0.02294414259119723,"715":-0.012753171595194953,"716":0.0299106276669455,"717":-0.001527138052551228,"718":-0.07463354040950133,"719":-0.009353704082095767,"720":-0.023782080532388308,"721":-0.010930753720900284,"722":0.04258354383661579,"723":0.027267577695053436,"724":-0.02369004474636008,"725":-0.034886180817453843,"726":0.05336076074181323,"727":-0.04075423990169296,"728":-0.007241160755215391,"729":0.020809368377343,"730":-0.0834521290921968,"731":-0.012712903001137546,"732":-0.02240830441670575,"733":-0.024956047771321137,"734":-0.0010865219820250438,"735":0.07292468264394054,"736":0.0043596376774251416,"737":0.018568017980349544,"738":-0.018679328162556914,"739":-0.014022331921458407,"740":-0.03558816285008499,"741":-0.038843971794471674,"742":-0.016197451586205353,"743":-0.06083716855414042,"744":-0.025407725284309016,"745":-0.026753168894924947,"746":0.04472490858520666,"747":-0.020782365875063328,"748":-0.02865686320912332,"749":-0.030005763362789446,"750":0.04669523231912181,"751":0.001499736592823499,"752":0.00030767675757583724,"753":-0.06389418024429004,"754":-0.03976879254387125,"755":0.01942415521115916,"756":0.014119045178747562,"757":0.08376506315720592,"758":0.026203156155339965,"759":0.054156347170930846,"760":0.029977204311173643,"761":-0.04821286104219614,"762":0.00659756367857118,"763":0.05969798500981332,"764":-0.0065394122369191315,"765":0.04469030403517558,"766":0.03789577918265964,"767":0.012196220390134528}},{"sx":1,"sy":1,"depth":768,"w":{"0":0.002675028122019745,"1":0.024197814944018996,"2":-0.024943972530037353,"3":0.08734111974832645,"4":0.026811669956667682,"5":-0.013470596467335855,"6":0.05830463610414583,"7":-0.03987835172476073,"8":0.005688649892530459,"9":0.07069253641512564,"10":0.03183286419097084,"11":-0.013145975499279065,"12":-0.0520171451492193,"13":0.03757389739215982,"14":-0.06468852095612446,"15":-0.00510052778839442,"16":0.042676464507348154,"17":-0.00585434567580083,"18":0.03455938308457999,"19":0.0217549084793569,"20":-0.018785894606069994,"21":0.04979677440583207,"22":0.03503473773649114,"23":-0.018520362207103083,"24":-0.05991997297430875,"25":-0.031659994670551236,"26":-0.033139445643504885,"27":-0.04129379044555407,"28":0.0027913221203236254,"29":0.013117717054884367,"30":-0.08394593326849968,"31":-0.0046206499694301335,"32":0.011340664518684845,"33":-0.0008134712850498416,"34":-0.02078003118607084,"35":0.0006952207936802025,"36":-0.01598563854276396,"37":0.012266659133844997,"38":0.011056510822382298,"39":-0.06578375286809592,"40":-0.03178981700338127,"41":0.05128401452924111,"42":0.0025566887623563214,"43":0.03994998826983451,"44":0.02221627784644819,"45":-0.0007191339141565229,"46":0.06989540980053706,"47":-0.0033311329167655754,"48":0.038308476618226964,"49":-0.03783200634086207,"50":0.0668847574964383,"51":0.0038715331691161698,"52":-0.0374635656143568,"53":0.014347350385443259,"54":-0.013950984343406124,"55":0.06521377977700211,"56":-0.04512152219734394,"57":-0.09479590515781028,"58":0.12631890148561603,"59":0.0014674063697547584,"60":-0.03304399650160993,"61":-0.007914727361210412,"62":0.034328950920202675,"63":-0.06476906808309833,"64":-0.09484350283615602,"65":0.009158917876162069,"66":0.013079502884699315,"67":0.05327571753827221,"68":0.05546409358081163,"69":-0.009801299789896337,"70":0.028638135418479524,"71":-0.012319238183049617,"72":0.01274206579730898,"73":-0.01714440334245713,"74":-0.019444442779819784,"75":-0.02516542633045531,"76":0.04958159064953114,"77":0.01637913718193762,"78":-0.057678930287194875,"79":0.039459440507114404,"80":0.053692206472551754,"81":-0.021516119708066987,"82":0.12627645924787964,"83":0.03408848095269155,"84":0.07224800957268758,"85":-0.04250016041919543,"86":0.0386091098085795,"87":-0.03561299025489459,"88":0.014456311094888825,"89":-0.04278868314900246,"90":-0.033662248044882985,"91":-0.011619353902397982,"92":-0.010461620105005096,"93":0.0036682845682526493,"94":0.03316265976497554,"95":-0.07282467633480494,"96":-0.024146868136330067,"97":-0.019031584497566735,"98":-0.07219475665234418,"99":0.002204355102760549,"100":0.013076043316632958,"101":-0.020951688608525594,"102":0.036871758364449204,"103":0.06180699261291501,"104":-0.031082100903360842,"105":0.010616016803935494,"106":0.0009091320771040123,"107":0.0173838057333707,"108":0.01904584748608863,"109":-0.0553605529433423,"110":-0.004716346778224468,"111":0.019274027481377954,"112":-0.06585953647099886,"113":0.03510334665867528,"114":0.047107183713523855,"115":-0.028619304657439372,"116":-0.08007939438654238,"117":0.012883497022598221,"118":0.04691009809920469,"119":-0.03526445480857929,"120":0.0662289439854353,"121":0.007331949315970315,"122":0.04399130155307342,"123":0.008852763494231135,"124":0.008341665280657677,"125":0.010244497799129807,"126":0.05915942377196904,"127":0.03526575239542885,"128":0.04146799402208007,"129":0.002185670330425479,"130":0.06833387022120661,"131":0.004800424578467411,"132":0.10032905873433744,"133":-0.08155951937642432,"134":0.01016514023328116,"135":0.050795268246785756,"136":-0.10178558914962063,"137":0.027335288007709874,"138":0.0443927637076877,"139":0.12461358900119035,"140":0.02449474066089628,"141":-0.031421261978255885,"142":0.005644368858585616,"143":-0.012753976120804183,"144":0.04948008762644924,"145":-0.026801421406073174,"146":0.06054737504030604,"147":-0.08224271181751518,"148":-0.034110212100226106,"149":0.04989467614228486,"150":0.10595980113264401,"151":0.06915495522168084,"152":-0.03637485129857769,"153":-0.007093276658519973,"154":0.04314182903746274,"155":-0.04736895820333473,"156":0.014494693104850714,"157":-0.016985555700647477,"158":0.002010946422999149,"159":-0.03998960688688427,"160":-0.010328085936977763,"161":0.05191243619244927,"162":0.05497967706699312,"163":0.01011899640391866,"164":0.013188569539707661,"165":-0.0795639658592248,"166":0.03767338108133445,"167":-0.027225317369093633,"168":-0.0058373518069085185,"169":0.00011163860461082304,"170":0.06001470816267417,"171":0.0058636636022596205,"172":0.0023609634983408853,"173":-0.006190528792684309,"174":0.06080365154342704,"175":0.0417804230847321,"176":-0.04542145266377271,"177":-0.01045281270892975,"178":0.010184648161945812,"179":-0.015143356486455371,"180":0.006947549651416861,"181":0.018888743814455513,"182":-0.021402194904911298,"183":-0.006977735871996169,"184":0.015633647257048678,"185":0.05160462073477383,"186":0.018678825438935495,"187":-0.005500013001952758,"188":0.019671260981617433,"189":0.016125439006411297,"190":0.04639956306007629,"191":-0.008191751993325381,"192":0.014058519695441581,"193":0.026601404867937942,"194":0.031145258660215197,"195":-0.018874966878379244,"196":0.022806892908442428,"197":0.005856807343524188,"198":-0.0023342465140109635,"199":0.017769585726105448,"200":-0.03291383003801228,"201":0.006828407087274385,"202":-0.01716479724629946,"203":0.006597135231457513,"204":0.05371687973662378,"205":0.024605593668233616,"206":0.04310275957504837,"207":-0.06908101964148486,"208":0.03780283565933653,"209":0.018705420648481266,"210":0.021030455329329407,"211":0.05031553179488695,"212":0.011934854611684401,"213":-0.025074250915236542,"214":0.02940791114394347,"215":-0.02388317974150408,"216":0.04851436732258074,"217":-0.015042250478375076,"218":-0.009813813097932977,"219":-0.07096547817777481,"220":0.018078601581723863,"221":0.022543732665236165,"222":0.1193685316599907,"223":0.05497215982007665,"224":-0.059763255685026946,"225":-0.03452321891428555,"226":-0.00729095280636257,"227":0.022637862199539477,"228":0.07720793801237122,"229":-0.029438288242528685,"230":0.05443790990536794,"231":-0.05977649965451834,"232":0.045775741903369874,"233":-0.026761914594586954,"234":0.04305285177998988,"235":0.004248136646977678,"236":0.047495829838979556,"237":-0.13190099030044514,"238":-0.11559941234704744,"239":0.08470667306988891,"240":0.04289860546995939,"241":0.06059879349907476,"242":0.009654307088102736,"243":-0.0783995935422661,"244":-0.020164355963632138,"245":-0.03907509340915841,"246":0.05205135161897246,"247":0.09769345931569108,"248":-0.01246350557516305,"249":-0.06872949581264025,"250":-0.03591138739555566,"251":0.06272675783547431,"252":0.0008778438278856869,"253":0.005351123449909532,"254":-0.06163473675016463,"255":-0.00698357602257971,"256":-0.03824298084538127,"257":-0.04447186733146701,"258":0.09930977701008188,"259":0.10043280985363633,"260":0.052236422579872786,"261":-0.03226267818491941,"262":0.08730725903105889,"263":-0.1405123006418464,"264":-0.024295672575856977,"265":-0.029816998142509047,"266":-0.08094893450626736,"267":-0.014303255506731003,"268":-0.059716982438500356,"269":-0.02158804398621419,"270":0.01660540739861173,"271":0.014248438262305157,"272":0.024733606646534047,"273":-0.08520129288193398,"274":0.04298873993298013,"275":-0.07871344977641166,"276":0.043944976421987254,"277":-0.04169085013768554,"278":0.04341665856851141,"279":-0.10326901202928367,"280":-0.04363334737842965,"281":-0.0025416242946810306,"282":-0.012697692703682836,"283":0.05891496502888079,"284":0.02159673868022248,"285":-0.016592154436607266,"286":-0.004406482090605492,"287":0.03076919536654082,"288":-0.0020483859381538586,"289":-0.000043857067549017585,"290":-0.07469532939003176,"291":0.05440904115310243,"292":-0.04531213151749718,"293":-0.0013633023688934217,"294":-0.03563725498639544,"295":0.07462700828881219,"296":-0.014587526250653477,"297":0.010783889075706281,"298":-0.003012012889382596,"299":0.04835313830824464,"300":0.006321539200675629,"301":0.023486785669065025,"302":0.020195691052007452,"303":-0.016232061619504676,"304":0.017127693437620002,"305":-0.014750011130121924,"306":-0.11668833169359347,"307":-0.03881478715114895,"308":-0.09740328171257545,"309":-0.02596403264145797,"310":0.0025361515034732825,"311":0.0015283433486256396,"312":0.007352253082864583,"313":-0.017354117366196395,"314":0.02120647525607542,"315":0.06335001825728442,"316":-0.008187324429785623,"317":-0.04578041425294813,"318":-0.1108978064857461,"319":0.052991773925242035,"320":-0.09995426146302276,"321":0.0232392617816091,"322":-0.12495196033459052,"323":0.05463606847074282,"324":-0.00037141061587864975,"325":0.17516696880921964,"326":0.0015958631416505135,"327":0.009221131101793206,"328":-0.05348442381241589,"329":-0.027503072769596893,"330":-0.0676273080051624,"331":0.050748291767317884,"332":-0.030533740200801854,"333":-0.06370346664865274,"334":-0.11987686578954773,"335":0.042705925058686665,"336":0.07007620957676498,"337":0.05124593874301149,"338":0.0886251695658756,"339":-0.029886855529733355,"340":-0.1018618710899592,"341":-0.018913163578814188,"342":-0.012798850513052198,"343":0.07176351818803067,"344":0.04069942704077377,"345":-0.12314514369551953,"346":0.010982550456987754,"347":-0.0758616675966043,"348":0.0654546342013314,"349":0.00510019992971178,"350":-0.010463074285937912,"351":-0.053574930973946985,"352":-0.06539802035552941,"353":0.02585242262783588,"354":-0.07101144623645544,"355":0.12868783091218822,"356":0.09132528225534892,"357":-0.07899017280542318,"358":0.06474652474200712,"359":-0.03344685986791011,"360":0.014625290282512112,"361":-0.0619801236685714,"362":0.005169883890092757,"363":0.010818221634978384,"364":-0.0888521759293709,"365":0.005146797026141338,"366":0.02454592062398715,"367":-0.01666682124903759,"368":0.0063695999639415395,"369":0.1078914673981526,"370":0.005439280427284709,"371":-0.05161062406796752,"372":-0.0509022345176718,"373":-0.06469818163484112,"374":0.027918862885137615,"375":-0.021808283064203786,"376":-0.07907945805029108,"377":0.030046282048588776,"378":-0.04236228466058185,"379":0.009840281804784573,"380":0.008305486562558475,"381":-0.07073503348949738,"382":0.028608835467370114,"383":-0.01285290783491906,"384":0.006886626609445307,"385":-0.024702276614891588,"386":0.03175079222958018,"387":-0.017396107404553673,"388":-0.0040378356459302685,"389":0.0374744423601123,"390":-0.030488171317902674,"391":0.0026972741572224603,"392":0.049254627499794465,"393":0.0158336797461634,"394":0.04579930562713912,"395":-0.004805510279090678,"396":-0.041712774696996545,"397":0.026995293888249342,"398":0.0069360542299030156,"399":-0.03142659858074646,"400":-0.07452846081754047,"401":0.010014713495659645,"402":-0.010616394364645194,"403":-0.05830300675907394,"404":-0.005310252457232616,"405":0.06266389004238479,"406":0.0624608964977488,"407":-0.059537772158598117,"408":0.09381453546808076,"409":-0.023329494406888772,"410":0.06167088016262498,"411":0.00036896265361721593,"412":-0.18933811161812664,"413":0.1641989425679234,"414":-0.021033168085865486,"415":0.0654514854353657,"416":0.015336395423995721,"417":0.028451897381008357,"418":0.00708537301563711,"419":-0.05897723346269696,"420":0.048713208605913584,"421":-0.005024952377222386,"422":0.029517805416282947,"423":-0.03761511707278253,"424":-0.11668652389765805,"425":0.14322470197227535,"426":-0.026214829293565316,"427":0.08654581763833291,"428":-0.008512771197055425,"429":-0.03460214986661811,"430":0.037754001458855345,"431":-0.1398854997027004,"432":0.08336594459643261,"433":0.012513662039621508,"434":0.0018021459310521787,"435":-0.016843351733930895,"436":-0.10627693436415463,"437":0.09745802498928004,"438":-0.15844029328950363,"439":0.009447174706223223,"440":0.08978429262069877,"441":-0.06727433939256386,"442":0.019358275554358022,"443":0.06239423505370707,"444":0.011106755882146893,"445":-0.09384751637410943,"446":-0.018947142593677368,"447":-0.030394686105650017,"448":-0.08497828211937407,"449":0.0503156610753169,"450":0.08838832953539835,"451":-0.10952017182405432,"452":0.018270724470676857,"453":-0.021135420084203837,"454":0.028230024972590185,"455":0.10300842573930084,"456":0.016366610541900983,"457":-0.08240642616674561,"458":-0.07301970647509345,"459":-0.016840301086419766,"460":-0.034502577404583665,"461":-0.019388409392179208,"462":0.04599119613769463,"463":-0.06391106188874551,"464":0.08693535330448816,"465":0.028861001903554822,"466":0.028642734933672198,"467":0.1634660366683809,"468":-0.031670303276177335,"469":-0.008829938401754583,"470":-0.03942723605041952,"471":0.04680226334908077,"472":-0.005904057441070406,"473":-0.014551486333366575,"474":-0.03883533255780449,"475":-0.0511481929747125,"476":-0.09998299371513489,"477":0.02632510858075412,"478":0.028136612943452356,"479":-0.0649305581997577,"480":-0.03930236835374887,"481":-0.017758346954630844,"482":0.012431721539510766,"483":-0.0018905832420676519,"484":0.01677788245609666,"485":-0.018478115779500193,"486":0.03985467500920637,"487":0.030020301730262103,"488":0.0261075779492295,"489":0.05047666783047399,"490":-0.012979041764418065,"491":-0.0637223050755877,"492":-0.013384835170889111,"493":-0.08630384014065487,"494":0.03531488097303615,"495":-0.019190645446064598,"496":-0.12305957174193756,"497":0.05348795627937855,"498":0.05314107381720641,"499":0.05611411979432086,"500":-0.035094482802695,"501":-0.004756795713496016,"502":0.06755398640787884,"503":-0.17628650982847932,"504":0.12215587388096395,"505":-0.19170249671392142,"506":0.07529103092698525,"507":-0.000023150922304588815,"508":-0.18975675619297977,"509":0.18074758421417228,"510":0.07842375587538308,"511":0.16488609501953885,"512":-0.007066511975203854,"513":-0.06562283637965866,"514":0.08604539152512936,"515":-0.13749359995398286,"516":0.19005720826400727,"517":-0.23373189570868685,"518":-0.005990749468546653,"519":-0.014734958604969437,"520":-0.080957111956655,"521":0.23547289009227762,"522":0.11165239884626625,"523":0.10843175934891183,"524":-0.0010201557449025715,"525":-0.04400680563677364,"526":-0.05822814005970161,"527":-0.09658435139795071,"528":0.002632405582137899,"529":-0.10854413917672362,"530":-0.009012889724167278,"531":-0.028214286408432418,"532":0.05348999397737907,"533":0.095405192601507,"534":0.019750640963890707,"535":0.053541531056650285,"536":-0.08118764377562605,"537":-0.06685906774280405,"538":-0.053647971940549176,"539":0.015579207058389988,"540":-0.13650927905986932,"541":0.07913371807383679,"542":0.014091613244113087,"543":-0.026522201688532067,"544":0.03624587921263221,"545":-0.0441341770288856,"546":-0.013106321664986093,"547":-0.019425199745544415,"548":-0.041985511147657174,"549":-0.1134974419531404,"550":-0.04126029319533658,"551":0.10943313020182584,"552":-0.13898842612701695,"553":0.1095305132671087,"554":-0.044588598459501805,"555":-0.007201234804255908,"556":0.04218295182822585,"557":-0.08570320284859606,"558":-0.07309183889882447,"559":-0.17968101296102904,"560":-0.04120060169289242,"561":-0.014042186156144573,"562":-0.011751291386958867,"563":0.07247372164697019,"564":-0.06427254026169442,"565":0.024092196428044724,"566":-0.00198773321711028,"567":-0.030054439063016216,"568":-0.025387411113401297,"569":0.019507414118844605,"570":-0.06884123365868369,"571":-0.0961538036200826,"572":-0.006087375666539595,"573":-0.032245027111284144,"574":0.005853193869961505,"575":-0.005294955042859697,"576":0.033201960816671684,"577":0.040901102290862315,"578":0.06249713193264946,"579":0.08050983030655,"580":-0.02123880344582606,"581":0.0053383231851136465,"582":-0.01659279638830713,"583":-0.08774301156842892,"584":-0.008914054273852591,"585":0.023515138859752777,"586":-0.04532647272328498,"587":-0.014381555945775407,"588":0.051824034158971764,"589":-0.01954459986155592,"590":0.04364773951681143,"591":0.04259157000312128,"592":-0.03450800436890338,"593":0.05685322518153181,"594":0.1348921762363262,"595":0.06871801244574777,"596":-0.09181459958107001,"597":-0.0838036684467422,"598":-0.03427849649831585,"599":-0.050638238305981596,"600":0.14476447667781153,"601":-0.0847624220432197,"602":0.010841677747717174,"603":-0.016434930419415992,"604":0.04975440538292133,"605":0.05766369747980656,"606":0.13492888439022047,"607":0.02217840420585462,"608":-0.06583195613328355,"609":-0.053459351491977454,"610":-0.0075216613277896,"611":0.0017488860094629346,"612":-0.044433526226914,"613":-0.026738520626428158,"614":0.010241538013766132,"615":-0.04454821545922982,"616":-0.016256684336710146,"617":0.005657741260977291,"618":0.03564745119965857,"619":0.0031998104130220918,"620":-0.11556337186793698,"621":-0.07942470851187078,"622":-0.058335830468867804,"623":-0.03392544994329171,"624":-0.0815825116197604,"625":0.06032884607538787,"626":-0.07952499690140392,"627":-0.026655835448552496,"628":-0.005434281461860965,"629":0.026705513434493375,"630":-0.010407382358869855,"631":-0.02532692171015091,"632":-0.05479158630182381,"633":-0.0599542848817511,"634":-0.05204829317704183,"635":0.004768742297823075,"636":-0.12747045739768,"637":-0.026410892637601685,"638":-0.005401773274528382,"639":-0.02559669409576874,"640":0.0055853044183185345,"641":-0.036888665987930946,"642":-0.0631357320041665,"643":-0.09524139695308104,"644":-0.028657201660506306,"645":-0.0873249980945939,"646":-0.05038261145771153,"647":-0.01795157966301147,"648":-0.0905367228720611,"649":-0.007260708132474109,"650":-0.0010487763150395294,"651":0.023419859537080714,"652":-0.006188077113900639,"653":-0.027938621696622597,"654":-0.11164684888771596,"655":-0.1111365839029989,"656":-0.039136276069897696,"657":-0.09391789738417844,"658":0.020431455593006024,"659":0.024017760308602133,"660":-0.08060192280115701,"661":-0.035819679287579,"662":-0.010258721566943133,"663":-0.026748855739443037,"664":-0.08427680227322254,"665":0.03293188986038818,"666":-0.009151411440991093,"667":-0.032891535349531605,"668":0.02025727330831199,"669":-0.022329253188813198,"670":-0.004857271295649311,"671":-0.028887959337225322,"672":0.05723236353555474,"673":-0.022728941974025155,"674":-0.037064766706352614,"675":0.002899771575541204,"676":0.002524374646776085,"677":0.06800451114033199,"678":-0.0035303259019313755,"679":-0.01625778370896685,"680":0.0013032812686731947,"681":0.07522064117949741,"682":0.018208985859886288,"683":0.05344300183670789,"684":0.01485841119011773,"685":0.02359160051343675,"686":-0.014783439465723594,"687":-0.000945211741901125,"688":0.00024779592855078214,"689":-0.023984429734968914,"690":0.037088275321418375,"691":-0.05261561229179282,"692":-0.031025602128098673,"693":0.00003129943605061784,"694":0.014824670624127219,"695":0.02123308088276563,"696":-0.058113159358377325,"697":0.009693511815805614,"698":0.00454311617484543,"699":0.039733015713767576,"700":0.05511368021363254,"701":-0.05024449340812824,"702":0.05430277262883009,"703":0.08921213463808268,"704":0.030223668529968648,"705":-0.09001456629584872,"706":-0.02443571007004856,"707":0.05812983101190043,"708":-0.09738976123404663,"709":0.0014577132518048931,"710":0.0443512849686677,"711":-0.051928211055816624,"712":-0.006476395648362692,"713":-0.10562559233900172,"714":0.014459920491507511,"715":0.020819759975712778,"716":-0.04385475884724712,"717":-0.014550280725680435,"718":-0.0528192291900523,"719":0.14512090286650883,"720":-0.10696811968455043,"721":0.08086585793460126,"722":-0.014077021438747134,"723":-0.014628913929008894,"724":-0.03649601191156352,"725":-0.03891827667186876,"726":0.04728949863218422,"727":0.054630252644131204,"728":0.014351632418057711,"729":-0.04115972182758684,"730":0.05134122997902961,"731":0.09592021738852581,"732":-0.037586993631299685,"733":-0.02062448378333164,"734":-0.003962907966944598,"735":0.004431894527882196,"736":-0.003017649415303568,"737":-0.07822774381170229,"738":0.023259405581488448,"739":0.02315958257973168,"740":-0.01771882458745881,"741":-0.02330477562155664,"742":0.012203769409186504,"743":0.02483337637302771,"744":-0.05224766893205052,"745":-0.01303839854014899,"746":-0.032391298567428,"747":0.08783322071227982,"748":0.011543327362648277,"749":0.014958942365700697,"750":0.031230934887833288,"751":-0.0017205994866021435,"752":-0.0036481799146886222,"753":0.05367984642222016,"754":0.034349250819022716,"755":0.016179713130547082,"756":0.0111694829845556,"757":-0.06765410118824726,"758":-0.0005164024404575029,"759":-0.02836648610477183,"760":-0.029779094810435027,"761":0.0015570724960562495,"762":-0.01570119583476489,"763":-0.022537899333108728,"764":0.030826488877519747,"765":0.014246144930415181,"766":0.007300479415052431,"767":-0.03336607223305337}},{"sx":1,"sy":1,"depth":768,"w":{"0":0.02995253483737363,"1":-0.012893067778610805,"2":0.031007641366439243,"3":0.021145453012814685,"4":-0.06369581411643531,"5":-0.053131658453080384,"6":-0.020077101840261118,"7":0.00686940785777086,"8":0.035226650024927184,"9":-0.05324522456198437,"10":-0.033109173078963806,"11":0.055019699973954034,"12":-0.04175455227092123,"13":-0.04872062291706826,"14":-0.026710701419940957,"15":-0.07001518556042377,"16":0.044839554614671075,"17":-0.03193444930088616,"18":-0.0015652908501063616,"19":0.05246887909447397,"20":-0.021923407807539277,"21":-0.018500108293419217,"22":-0.007652063975722277,"23":-0.005345935191026735,"24":0.016420976684099687,"25":-0.006796030739511384,"26":0.010996598341273282,"27":0.023444174527019405,"28":-0.06222611893771222,"29":-0.01653973455509833,"30":-0.0199652000364482,"31":-0.022929206802860203,"32":0.022402604910820786,"33":0.04097952474532937,"34":-0.054452447649995434,"35":-0.03198303411434998,"36":0.03944587198708349,"37":-0.01708295832142728,"38":0.01061814740302409,"39":0.015235851557558104,"40":-0.057799980442894305,"41":0.03326776701371809,"42":-0.0779565918689265,"43":-0.05081749304854555,"44":0.018493489196323463,"45":-0.0030843932702588027,"46":-0.045863930890999376,"47":0.05637244998181828,"48":0.07827158161766146,"49":-0.03673397526453317,"50":-0.03209706073049065,"51":0.03164456164547762,"52":0.015398999896379122,"53":0.03265082394485174,"54":-0.02165008221021573,"55":-0.018403787534155433,"56":-0.037242643279779726,"57":-0.05020014666888625,"58":-0.02151559053849221,"59":-0.02476203116798699,"60":0.04018647007223854,"61":-0.008832531814342539,"62":0.06785855756760216,"63":0.038161640387991726,"64":0.023101789323370037,"65":0.05551197876809574,"66":0.030987488977475643,"67":-0.0677512669590067,"68":0.04752259749108584,"69":-0.04651448819812998,"70":-0.053915781720610075,"71":0.08347020823830743,"72":-0.004552090342756825,"73":-0.028540525210195452,"74":0.0827343012764315,"75":0.010326941971036481,"76":0.0025124193554318295,"77":0.0022213324121621012,"78":0.03974707679986578,"79":-0.025166991840913054,"80":0.03595573854752609,"81":-0.009240415863972623,"82":-0.020497894189278634,"83":0.07882773834389814,"84":-0.04124052854779152,"85":-0.023684627396768652,"86":-0.04186747031439069,"87":0.028343277374401534,"88":0.027999692133633302,"89":0.02758936647473431,"90":0.029152067575227387,"91":-0.07439929741934684,"92":0.02369736407113993,"93":-0.03144230896789362,"94":0.0456432965770933,"95":0.011343243840948009,"96":-0.015017838652208097,"97":-0.009895108948546567,"98":0.00523085326731989,"99":0.003761022124528549,"100":-0.02422552527966857,"101":0.010161881627890515,"102":0.03317812574815806,"103":-0.033435829631162345,"104":0.03439946327776451,"105":-0.05128858099453406,"106":-0.03177872253363899,"107":0.006243315322417374,"108":0.0011698638358829498,"109":0.002770993008027953,"110":-0.024090171262366074,"111":0.023239036360525874,"112":-0.036179210474483164,"113":0.0028791717209340362,"114":0.026898676028534466,"115":-0.0033053176573832215,"116":0.03655927720545216,"117":-0.025449366659697156,"118":0.015756575605057284,"119":-0.028520000537259504,"120":-0.04048351124561797,"121":-0.04747775409381383,"122":0.00767611800477112,"123":0.04181060153616678,"124":0.0010423680593153691,"125":0.0679473042969234,"126":-0.04853094195998601,"127":-0.005140144570454357,"128":0.002757890645945755,"129":0.08369249468431339,"130":-0.01797195240367464,"131":0.020907819429179287,"132":-0.02651758315745831,"133":0.02470187503952524,"134":0.06632686501729618,"135":0.05693718875894809,"136":0.019514908234540725,"137":0.05151463653659287,"138":0.11698854688905638,"139":-0.11495147109781705,"140":0.04365239570206794,"141":0.044350715039019994,"142":-0.014067540296601148,"143":0.06412898365568431,"144":-0.0564569326253344,"145":-0.025648659457472286,"146":0.006744365708620645,"147":0.022829897059815966,"148":0.0540133307046997,"149":-0.0011096441668019727,"150":0.038248275842962476,"151":-0.04373855167874961,"152":-0.046998211421130615,"153":0.0002433435888236037,"154":-0.08401285857929423,"155":0.10126951803787039,"156":-0.029435323064803287,"157":0.05085851574419156,"158":0.06188389054525639,"159":0.021317034983929083,"160":0.018962855150731265,"161":0.0036351147143555535,"162":-0.02583904231791055,"163":-0.06905526032320318,"164":-0.06150654707851961,"165":0.019680108159981117,"166":0.0009504852714450103,"167":0.09539895584561826,"168":0.013623909999444987,"169":-0.00046193599202870616,"170":0.05837511084323782,"171":-0.006719141713033819,"172":0.04795809593637649,"173":-0.005413571102646164,"174":0.054918000151502167,"175":0.055578487969819415,"176":0.006449935195516427,"177":0.04867762107393593,"178":0.05404823421375834,"179":0.06713681250781248,"180":0.031225147823648405,"181":-0.08047468670303586,"182":0.007991052577310172,"183":0.017628442392223546,"184":0.01587042945665789,"185":-0.05566175848641339,"186":0.0011505805207114735,"187":-0.005827104078070162,"188":0.0635651166275403,"189":0.0068641891475918915,"190":-0.011562514849230664,"191":-0.03608533388033469,"192":-0.020237100448758556,"193":-0.03283523755475031,"194":-0.009581534423935624,"195":0.0277610699110859,"196":0.039457038797519384,"197":0.041164221529023756,"198":-0.01908367757131448,"199":-0.013044198297987575,"200":0.054329370893222526,"201":0.05152328157191316,"202":0.05729998458371421,"203":0.0052210013914840234,"204":-0.01132699394002586,"205":0.044029268348989584,"206":-0.01380496634767852,"207":-0.02225480094855708,"208":0.03974020492580759,"209":-0.010786538692809912,"210":-0.04057666274077519,"211":-0.046475043899140395,"212":0.08971027914219894,"213":0.037731570253007794,"214":0.06031613553502749,"215":0.03798336424114917,"216":-0.03318728569777745,"217":0.03840585427650898,"218":0.034305693201312416,"219":0.004148208526444359,"220":0.084108535401399,"221":-0.030366027209390464,"222":0.030965145367070686,"223":-0.11904542378874475,"224":-0.02727947744050054,"225":0.08333546588712536,"226":0.012422163059988342,"227":0.04380704004747741,"228":0.02156883582065259,"229":-0.02495789086326819,"230":0.07173531734833835,"231":0.037842886631776325,"232":0.012300997793667591,"233":-0.022033967305386,"234":0.00754721790091904,"235":-0.07336382273050007,"236":0.05756439978845881,"237":0.0724322821354566,"238":-0.06167488590080585,"239":0.09772188874269652,"240":-0.043690277648969135,"241":-0.004524159832759007,"242":0.01947768309410456,"243":-0.029417698712214935,"244":-0.0017256950817922739,"245":-0.0661582265362661,"246":-0.04223053198761167,"247":-0.15293557010657752,"248":0.008768313566889382,"249":0.036404582447338955,"250":0.02983212598034223,"251":0.1455190318272213,"252":0.002875951543832738,"253":0.0206426586912465,"254":-0.04324601689080187,"255":-0.040590650209239236,"256":0.05238891467414475,"257":-0.06408800593443362,"258":0.00512511916899257,"259":-0.09676531781155638,"260":-0.09726939086435663,"261":0.017164620677749376,"262":0.022698226729994796,"263":0.09721121651729653,"264":-0.005484900395146722,"265":0.036320858956561036,"266":-0.054233776233789076,"267":0.0452052278278784,"268":0.1358332736425327,"269":-0.003685818126295632,"270":0.04927983782234267,"271":0.007460718086311367,"272":-0.023238181792628453,"273":0.03647713116633431,"274":0.08890212233164813,"275":0.12097788650661169,"276":-0.03034200776064307,"277":0.02696661422449749,"278":0.08679071220134855,"279":0.0128870999925157,"280":0.03924364091055838,"281":0.01598637448382192,"282":-0.036946931811197126,"283":-0.009525191656801038,"284":-0.03345983652639396,"285":-0.010295200186391558,"286":0.04469682177028155,"287":0.0023506302323797186,"288":0.06682192411207702,"289":0.015278508184423542,"290":0.014545175283128157,"291":0.06641543475911034,"292":0.03391126512527282,"293":0.003926540726350365,"294":0.0035171418138151096,"295":-0.010295024187254408,"296":-0.021105441917490763,"297":0.05878403773452732,"298":0.014348559652742806,"299":0.016189226741947168,"300":-0.09056057061649427,"301":0.015873833651218517,"302":-0.03654409716714424,"303":-0.0052760368542483,"304":0.037050785769823194,"305":-0.06344677037111979,"306":-0.010906420972514801,"307":-0.055415113406311216,"308":0.08242622177902105,"309":0.06520858005860691,"310":0.07704618801216782,"311":0.11282130398769652,"312":-0.11808491697683254,"313":0.022206329991412345,"314":0.01924574125299727,"315":-0.00929195835391231,"316":0.021552708779528956,"317":-0.01873822857577685,"318":-0.07034735506930892,"319":0.0199084915120801,"320":0.1212098148615054,"321":0.11311073438208345,"322":0.07733094759872987,"323":0.019189324594116056,"324":0.03127634000887878,"325":-0.00106044760909128,"326":0.045122569873393296,"327":0.00911528159399751,"328":0.04123346286285372,"329":0.007968769198403941,"330":-0.012490829205338947,"331":-0.06207106588064161,"332":0.044459764107401614,"333":0.1016422479919938,"334":0.0711652414715259,"335":0.0303628746746036,"336":-0.046230903980235875,"337":-0.0673885878627064,"338":-0.03549663741675577,"339":-0.024198851125525587,"340":-0.00463304714134171,"341":-0.017737630185936257,"342":0.08340804183679985,"343":-0.05606259923701579,"344":0.010137817598942155,"345":0.08947908173740364,"346":-0.011659326793589234,"347":0.09974511186304412,"348":-0.07267129188415511,"349":0.11252670566508388,"350":-0.046966519689287806,"351":-0.03834739033722723,"352":0.1235748654207424,"353":-0.10277400760495867,"354":-0.016093813037396064,"355":-0.07265825177195599,"356":-0.03626450762336414,"357":0.0066400138868206796,"358":0.02403470152323387,"359":0.03767074237093704,"360":-0.012207600485548972,"361":0.0049040654332080415,"362":-0.0025946394940744334,"363":0.06665789090508425,"364":0.03137175389262083,"365":-0.07586630925867333,"366":0.03177305981364751,"367":-0.019235606466473373,"368":-0.023344806440956708,"369":0.003521623298656678,"370":0.02687424886425675,"371":-0.03093521081399427,"372":-0.057689801968679226,"373":0.04136627572664647,"374":0.00556855229809614,"375":0.011131661753222223,"376":-0.012332608519532471,"377":0.053722790779552214,"378":0.003528437742920464,"379":0.00867549110251001,"380":0.02069914319167737,"381":0.006748371061796506,"382":0.03367019090635359,"383":-0.012850571182078238,"384":0.013727798409965694,"385":0.016978762211253617,"386":-0.06745143827590355,"387":-0.046443571417811635,"388":0.014486628161146632,"389":0.011241845515462784,"390":-0.024219872606052597,"391":-0.014390823527560246,"392":0.050758628317910726,"393":-0.054114954980821806,"394":-0.017459182198377363,"395":0.043621896530104586,"396":0.04810052376725737,"397":0.008628555373505603,"398":-0.013917097482537142,"399":-0.013730034463586184,"400":0.007235669607907831,"401":0.030477246464610842,"402":-0.04752517250411668,"403":0.009942086876323007,"404":0.026260446521592835,"405":0.003823311589559423,"406":0.06807881997948054,"407":0.05032313357168002,"408":0.06539789121387257,"409":0.006586433335769603,"410":-0.003977463547138616,"411":-0.0329812673418637,"412":-0.08381918392346782,"413":-0.004556539534525754,"414":0.09907798466752546,"415":0.06153078942614813,"416":0.058997872912628355,"417":0.05501913627121724,"418":0.21346674665573762,"419":-0.11185459369302453,"420":0.09617748270592688,"421":-0.09045313478807708,"422":0.025207244184924964,"423":0.03997459355517524,"424":-0.01707437798780262,"425":0.025731942668950382,"426":-0.07524740871473727,"427":0.05063919340088681,"428":-0.0035199884416750884,"429":-0.007008477907540733,"430":-0.03532575746037526,"431":0.1331122417951212,"432":-0.041295971129267466,"433":0.06630272980727547,"434":-0.018342526200344753,"435":0.039170992652200455,"436":-0.057886508631162674,"437":-0.07995392983103888,"438":0.04233013170485401,"439":-0.042369292229178075,"440":0.003690121943438135,"441":0.02181207383298001,"442":-0.08819497564811012,"443":0.06582449220282036,"444":-0.07427406599796992,"445":0.1492424038058372,"446":-0.007288462504412762,"447":-0.09244730519019205,"448":-0.01690661117083847,"449":-0.10416862695938188,"450":-0.044972510537049454,"451":0.005172774919171463,"452":-0.030680208479032578,"453":-0.06653471130360122,"454":-0.03381039428802112,"455":-0.01964543108873079,"456":0.027492073036274954,"457":0.04792564670207595,"458":0.06289603846192321,"459":0.024528936171460056,"460":0.0021960730352480477,"461":0.0015513015307609917,"462":-0.08212779584615273,"463":0.0019299173331407684,"464":-0.014089284752258242,"465":0.030088299839790264,"466":0.030460528989762283,"467":-0.03776444970378576,"468":-0.067751852129596,"469":-0.007322958301445992,"470":-0.003459356284559752,"471":0.003507198546203412,"472":-0.0645599497487801,"473":0.03483804452475335,"474":-0.042013501422193705,"475":-0.03935774162551544,"476":0.07064408624513234,"477":-0.045046864099839046,"478":-0.006506120278292642,"479":-0.003571116422399949,"480":0.029791627255422698,"481":0.027937936160586974,"482":-0.018302028284294752,"483":0.0323972445673647,"484":-0.036019955026138153,"485":0.04536537001182384,"486":-0.0762009462898369,"487":0.014557499873787594,"488":-0.03380877128136326,"489":0.020088183623531815,"490":0.00039445839758076636,"491":-0.08163226103876824,"492":0.11127307717094531,"493":-0.00036071256335326205,"494":0.016562117294650135,"495":0.031158756555431297,"496":-0.06811792855443435,"497":0.029618460486400232,"498":0.014772334817877491,"499":-0.008202385490006394,"500":-0.0472963830038816,"501":-0.039966467843895466,"502":-0.009880822214420291,"503":-0.009415997282822575,"504":-0.05332417686057841,"505":0.062418605874525926,"506":0.04499172024072897,"507":-0.08502551329672864,"508":0.02002862964229975,"509":0.020824284499630075,"510":-0.042275825734796435,"511":-0.024315236221567338,"512":-0.039470750686413175,"513":0.03726132496326192,"514":-0.021631368687167057,"515":0.0009719902255509404,"516":-0.014823055657859524,"517":-0.025295161101848946,"518":0.09368617733882154,"519":0.020761667176496676,"520":0.02524210867283197,"521":-0.06170039521418405,"522":-0.07942528989703311,"523":-0.008531884841022045,"524":0.05771343443017897,"525":-0.015329257598368241,"526":-0.08538869752469827,"527":0.15508015480987308,"528":-0.010302995799398902,"529":0.06027669763395134,"530":0.010013660067782482,"531":0.00006978363219147657,"532":-0.07700961348400773,"533":0.043167723713010545,"534":-0.09688956158827847,"535":-0.09266769462043167,"536":0.01856652007258066,"537":0.04111717233911678,"538":-0.0971103059641312,"539":0.008325532985825614,"540":-0.015943348474806475,"541":0.003197141340448766,"542":0.04305853603885255,"543":-0.02946237603760815,"544":0.020741412923102758,"545":0.0718628473707882,"546":-0.10319757872018512,"547":-0.07915212213865154,"548":0.054564283548095775,"549":-0.02398884422204764,"550":-0.005090639864715035,"551":0.003980862145748867,"552":-0.002516091528918397,"553":0.034343640365625545,"554":0.045422237753009444,"555":0.02834819084029385,"556":-0.04676884131486793,"557":0.008818353743024218,"558":-0.02460019048159078,"559":-0.023435060494234907,"560":-0.05079460330652581,"561":-0.03365217611083515,"562":0.025918172477932194,"563":-0.011877288326240071,"564":-0.018471877474286878,"565":-0.04997115352804571,"566":-0.025591915018723876,"567":-0.02009880160653137,"568":-0.010212197704230153,"569":0.04210917665220313,"570":-0.032838343517912684,"571":-0.05474781662346914,"572":-0.0205784229821284,"573":-0.07284499051298618,"574":-0.0065059869324066094,"575":0.03181213976550761,"576":-0.046929531589526126,"577":-0.05155030546097018,"578":-0.014043508451885336,"579":-0.034969208392458,"580":-0.03614450287555983,"581":0.01354300474037233,"582":-0.023652922200290662,"583":-0.03024616517257905,"584":-0.007293887142977522,"585":-0.05435821738243784,"586":-0.02299189216958118,"587":-0.008972956589458816,"588":-0.08321039933784427,"589":-0.013461676500609598,"590":-0.03231174422223339,"591":-0.02087066368986184,"592":0.045286460210559716,"593":0.042051589229842264,"594":0.002008779356001998,"595":-0.05317334663882526,"596":-0.032761373242590736,"597":0.01890487490094921,"598":-0.06474129016145937,"599":0.0030819467855696956,"600":-0.13097367330731707,"601":-0.017142860962488307,"602":-0.03433452410436804,"603":-0.004034842937831851,"604":0.07479848965827234,"605":-0.044175071242002525,"606":-0.11988770051848648,"607":-0.0648991655257341,"608":-0.04348188939460413,"609":-0.0723801833736386,"610":-0.041411425678684756,"611":0.07266473123549431,"612":-0.08863023593306034,"613":-0.04740502699164458,"614":-0.022849372527691023,"615":0.002353545785224126,"616":0.10875546766735686,"617":-0.004453925177017623,"618":-0.15256247761155015,"619":-0.12073655089483669,"620":-0.051032874349281346,"621":-0.028666694183277032,"622":-0.012687059640257414,"623":0.11885414593270724,"624":-0.05809366049220031,"625":0.002379022358047054,"626":0.009452488552722363,"627":-0.019713891529972986,"628":-0.06520629314016795,"629":0.04435459430729069,"630":-0.10184237887976821,"631":-0.140209176410057,"632":-0.08062500172901997,"633":0.03636991169708456,"634":0.0004100701307842803,"635":0.1002642067096333,"636":0.0021083004123971755,"637":-0.09685504738008083,"638":-0.04847451469889889,"639":0.015838803283306727,"640":-0.01754502765782553,"641":0.015145941346399367,"642":-0.06991988972919651,"643":-0.1231343493890469,"644":-0.011034770561477026,"645":0.10490676429747646,"646":-0.02574541418511925,"647":0.08207984586316391,"648":-0.012688098637351326,"649":-0.023581520624975816,"650":0.03698205051448209,"651":0.00645952326928909,"652":-0.05318959828116048,"653":-0.0038405625258111334,"654":-0.008938296569576261,"655":-0.07545739671423601,"656":0.033641347371790704,"657":0.03322774559761684,"658":-0.031821942717542386,"659":-0.06752233803588628,"660":0.032821040450576475,"661":-0.027142865000201466,"662":-0.02644001023845455,"663":0.023520406174665207,"664":0.0046120769527684515,"665":0.01803196931396749,"666":-0.04322741652180291,"667":-0.040938081903613574,"668":0.022799536527968102,"669":0.03780598884350225,"670":0.024171016284746147,"671":-0.012564685989762075,"672":0.038149884348539206,"673":-0.06526109928321244,"674":-0.052289433270160994,"675":-0.049514351654007804,"676":-0.03391107999724615,"677":-0.009959775280847705,"678":-0.011502639426884145,"679":0.004713912769012127,"680":0.02929081437160934,"681":-0.035524807669179224,"682":-0.028368169100080186,"683":0.05288192929135761,"684":-0.016160961009449276,"685":0.026281925113578578,"686":-0.013459598073421408,"687":0.0008746539697209652,"688":0.02312172239694548,"689":0.013140719750166587,"690":-0.03749440207821074,"691":-0.021600742193474538,"692":0.029622653167114814,"693":0.04570939959037874,"694":-0.03006395218951405,"695":0.04485748004564011,"696":-0.05623438075699845,"697":0.0301802092063911,"698":-0.0037793162184588534,"699":0.07720036192522445,"700":0.01951310233932195,"701":0.002564751374044527,"702":-0.1471836534926811,"703":-0.0327878196547559,"704":-0.08390824503551236,"705":0.0542678725971436,"706":0.03552792703615967,"707":0.024540314245532217,"708":-0.008380235020766603,"709":-0.033159889657398925,"710":0.052000389078720656,"711":-0.035315491107367,"712":-0.024026805098507034,"713":0.04651471989804714,"714":-0.11430405196327473,"715":-0.06614658317781659,"716":-0.07114957277982241,"717":0.02525004112901979,"718":0.13709258919720677,"719":0.10174310852431269,"720":0.0611469694437328,"721":0.08392298450862451,"722":0.005893162656542787,"723":0.03922006764147687,"724":-0.04910981888297143,"725":0.03819403720719856,"726":-0.027471020121248458,"727":-0.02531331062214554,"728":-0.06291951801599226,"729":0.12002739369777754,"730":0.05492592280675346,"731":0.14837604277174538,"732":0.0033917698923162133,"733":-0.01731316562646447,"734":-0.0256201782263409,"735":0.00044029473326008274,"736":-0.008987519190349782,"737":0.05933390187823432,"738":0.059123171901177836,"739":0.02082641127892711,"740":0.04078605972441803,"741":0.04629131845324597,"742":0.10188109688569283,"743":0.0451857273691285,"744":-0.02992217256919157,"745":0.016041202481362038,"746":-0.04566119508520633,"747":0.019522356585067194,"748":0.07853881176864304,"749":0.01310503844734319,"750":-0.018425707846765144,"751":-0.03240950312735045,"752":0.02923979367418576,"753":0.018444115192934603,"754":-0.012637577740308855,"755":-0.00504569376492148,"756":0.012239162066241992,"757":0.030340748983732672,"758":0.03843133174010423,"759":0.051489107172142536,"760":0.009259463106955313,"761":0.011986613267239321,"762":0.01742566645975105,"763":0.021858331677086555,"764":0.0094519181538073,"765":-0.002537359343083668,"766":-0.05011325137478075,"767":-0.01459059279279493}},{"sx":1,"sy":1,"depth":768,"w":{"0":0.020758377210614458,"1":-0.021375431000231145,"2":0.021894388257369196,"3":-0.014547004976269689,"4":-0.04693844870602274,"5":-0.0027521940002101864,"6":0.009728001187525153,"7":-0.04798953187381079,"8":0.03261407137667889,"9":-0.008975886403170874,"10":0.04005793639136298,"11":-0.005171129184480907,"12":0.03607534476518699,"13":-0.0013979582103630797,"14":-0.001573954065415776,"15":-0.025735752893846685,"16":-0.006001237612560376,"17":0.008419720026421476,"18":0.029516098623894798,"19":-0.09414990546393441,"20":0.033275729893182726,"21":0.02764551637161434,"22":0.045643829686944346,"23":0.013441785379936429,"24":-0.04568166997477679,"25":0.02040650179566749,"26":0.004417206766058723,"27":0.00213572676392621,"28":0.0007550609475863372,"29":-0.04058189687438404,"30":-0.00016844415787517237,"31":0.051265915173804535,"32":0.04700105172541815,"33":-0.03274443061621353,"34":-0.0038379154928485353,"35":-0.05554083420686592,"36":0.05566674319500342,"37":-0.021304559112444728,"38":0.04652841450666442,"39":0.002707922556474105,"40":-0.01338814699464612,"41":0.011516318462117788,"42":0.02914857734447254,"43":0.04956567502379008,"44":-0.04513615393152664,"45":0.0322049689450948,"46":0.051562986754673586,"47":0.03467462726625029,"48":0.08120384628026084,"49":-0.04593542748627248,"50":-0.015357904272532322,"51":0.005286173711908121,"52":0.04407419936095083,"53":-0.034330140006178046,"54":0.049637182461079524,"55":0.08028720532309061,"56":0.03341846428489567,"57":0.041359825500178464,"58":0.043858037655855456,"59":-0.011308040073645689,"60":-0.038851554896973665,"61":0.03769194597121135,"62":0.013069169533145894,"63":-0.05403496872444215,"64":-0.07094425579076563,"65":-0.028688074713043295,"66":0.05237250015410575,"67":0.03930174701015476,"68":0.05377179186977128,"69":0.05285507967492504,"70":0.004419824623778993,"71":-0.08029933319410934,"72":0.055275229638584646,"73":-0.008569854390347202,"74":-0.02970701382575243,"75":0.013993175943936976,"76":-0.024580767055613524,"77":-0.011681870400677358,"78":-0.02295955639138983,"79":0.0012037955700513225,"80":0.0170597149200276,"81":-0.01900187938230209,"82":-0.008438355002620988,"83":0.023230420272062194,"84":-0.026725707038858473,"85":-0.04663334036209086,"86":0.002468567726399096,"87":-0.026595531956162183,"88":-0.04922264917156673,"89":-0.045139333911010854,"90":-0.05127364744029691,"91":0.009590220724125856,"92":-0.03413324474835423,"93":0.015700051554882716,"94":0.001579605272362695,"95":-0.013914005132810632,"96":0.042502378059019394,"97":0.0034331671602821387,"98":-0.03711219010049998,"99":0.012076194412498426,"100":-0.060729726221837234,"101":-0.00234284918343974,"102":0.014921655615708969,"103":0.011320637322884809,"104":-0.0023697102755931535,"105":-0.009126679054475602,"106":0.06501512732331137,"107":0.02487136439068619,"108":0.0038543222939659747,"109":0.04052096390448539,"110":-0.06992319694549164,"111":0.07310075226410624,"112":0.02406605461508494,"113":-0.0028589426565317744,"114":0.008151591355801718,"115":0.07672580407782933,"116":0.014227643365828869,"117":-0.051882437291185066,"118":-0.02643053100456673,"119":-0.10400254754239727,"120":0.09380231651949784,"121":0.027994810647363682,"122":0.03355105238221996,"123":-0.023767851897480062,"124":-0.1382602987476961,"125":0.022241120943886604,"126":0.04945291568874469,"127":0.12826304312211023,"128":-0.006461736166438203,"129":0.05142591480091429,"130":0.03325586358693707,"131":-0.08891502331844564,"132":0.13001865823125267,"133":-0.0779434625549659,"134":0.08666082316207359,"135":-0.06593005149595402,"136":0.006995665025913676,"137":0.011298724682656202,"138":-0.050385585637842484,"139":0.07728059229997514,"140":0.09144608416516246,"141":0.012747151820589568,"142":0.07821583426408016,"143":-0.09179473224647322,"144":0.07368597087159542,"145":0.014785431569274343,"146":-0.0022020264874680964,"147":0.02748213936859503,"148":-0.01506153167983538,"149":-0.0785936537008494,"150":0.052420567685183814,"151":-0.012124778440931567,"152":0.1412699483504604,"153":0.013256283270724187,"154":0.023887779370333952,"155":0.09330744740102942,"156":0.03938297625388083,"157":-0.0006778307506465864,"158":-0.11029470618974573,"159":0.005065390602245581,"160":0.009245952654499226,"161":-0.06884793124256405,"162":-0.008791061486199939,"163":-0.04122483594935395,"164":0.11533381473388428,"165":0.12666148985017242,"166":0.08624046439252646,"167":0.016542752043376963,"168":-0.0574986772573185,"169":-0.030309069293452576,"170":-0.03352796343239797,"171":-0.04619903172352225,"172":-0.06645865934125324,"173":0.007485637126366988,"174":-0.014701019188489331,"175":-0.10390841658464595,"176":0.0938086910270324,"177":0.10962054186888026,"178":0.025031054913079973,"179":0.03870858456364618,"180":-0.0012328119893398218,"181":-0.030923388779048672,"182":-0.004578279816642932,"183":0.01406697416472048,"184":0.0066434164386266455,"185":-0.05008827754022088,"186":-0.02455108732784544,"187":-0.05597263206994938,"188":-0.09247964106995098,"189":0.05605591860058904,"190":-0.019433075186337034,"191":0.036357138011519935,"192":0.024696046420768305,"193":0.04351052548095497,"194":-0.05586997347688111,"195":0.004017041355017803,"196":0.008653878315448251,"197":-0.013188958922572495,"198":-0.03253539022319635,"199":0.06442234797477284,"200":0.009970740585918517,"201":-0.029121352101170617,"202":0.03621603781589574,"203":-0.07673796631879318,"204":0.08999321538390022,"205":0.017450968830763396,"206":0.07122326259098426,"207":-0.021162197669577304,"208":-0.08305723013265066,"209":-0.0019520776279689435,"210":0.03143667412610624,"211":0.1207406540408157,"212":-0.03505082682307925,"213":-0.06769875782588518,"214":-0.04774914462091005,"215":-0.19087410014778092,"216":0.12833156225612707,"217":-0.04560278633799842,"218":0.014996025538173146,"219":0.045054334894908454,"220":-0.040346410023657506,"221":0.06254560823957989,"222":0.04741888240842088,"223":0.23150071041967812,"224":-0.0783648174402541,"225":-0.15606371829397456,"226":-0.06583906280625387,"227":-0.15949800026162628,"228":0.19792900243462505,"229":-0.08770196680675843,"230":0.019853539178147594,"231":-0.03245256603970676,"232":-0.17015308224886228,"233":0.11332235171739807,"234":-0.06848844597056428,"235":0.22074366948377697,"236":0.14660942240482125,"237":-0.06112655544501896,"238":-0.10352731722111073,"239":-0.1401328788118949,"240":0.060474934928680606,"241":-0.06604244041481391,"242":-0.033041431226906955,"243":-0.04760293315965004,"244":0.0177169816812109,"245":-0.029017909699671492,"246":-0.017033143306775488,"247":-0.01240440506698854,"248":0.13893356177326388,"249":-0.004733409281807275,"250":0.047067245116290006,"251":0.06569023575914777,"252":-0.0893677128470274,"253":0.005659431195318274,"254":-0.013006849873228905,"255":0.08435777829041771,"256":0.09878398831045249,"257":-0.11792739503857254,"258":-0.08340397875496705,"259":-0.09963119957545906,"260":-0.017094273792563463,"261":-0.015159164879071573,"262":-0.02686504265739285,"263":0.15298089538930093,"264":-0.06959277211543986,"265":-0.004705350281400296,"266":-0.025394276074434882,"267":-0.03620664848710413,"268":-0.0013419263360178622,"269":-0.03781671071052589,"270":0.009566465302028948,"271":-0.0690097017463969,"272":-0.013037496763482669,"273":0.019327992859370847,"274":0.03394839438034439,"275":0.17687392143396855,"276":-0.048701738867404754,"277":0.015456716021038869,"278":0.0027999823929092593,"279":-0.023842177755180063,"280":-0.01659400197171557,"281":0.03176009420439956,"282":-0.04484957985674533,"283":0.014852112439205598,"284":-0.013930801361521005,"285":0.030377903951845166,"286":0.060894308135602454,"287":0.008012176923123856,"288":-0.008356460726948699,"289":0.04078040333425004,"290":0.006492320891695455,"291":-0.04530686857739007,"292":-0.05024480602812451,"293":0.07364843825941285,"294":0.025865375671967106,"295":0.006337853642956336,"296":0.03841254112791406,"297":-0.11959773673972052,"298":-0.029100495832651428,"299":-0.18960437046003667,"300":0.029813709168072917,"301":-0.05350448961699887,"302":0.030567239865049337,"303":0.007474945838419092,"304":-0.07337090366124137,"305":0.11365820237199309,"306":0.04817664214603001,"307":-0.01969883956722535,"308":-0.15747705212261345,"309":-0.19029923142450172,"310":-0.05849524277573459,"311":-0.12330685434447901,"312":0.149341668104313,"313":-0.11049787137937031,"314":0.10399104924776999,"315":-0.06562356679942015,"316":-0.11677942448561562,"317":0.06900069126075582,"318":0.12454594300922509,"319":0.049271234298498716,"320":-0.06785091449891016,"321":-0.05896148400960264,"322":-0.0946239595476596,"323":-0.20598976486023862,"324":0.10986878775410075,"325":-0.13018465172094543,"326":0.0005948555858178899,"327":0.018657133329293984,"328":-0.15834203341432587,"329":0.02993521984144464,"330":0.12620346492597515,"331":-0.05103547733520993,"332":0.035211541384718985,"333":0.09299079736047773,"334":-0.11541493890903375,"335":0.05620263769942307,"336":-0.10918800383238587,"337":-0.029302045102716993,"338":-0.048611975362755744,"339":-0.005826081688725298,"340":0.06861662237007844,"341":-0.09165202417359274,"342":0.11188722841483213,"343":-0.08148216280310364,"344":-0.0964792806307437,"345":-0.0905608100444989,"346":-0.013546107021611235,"347":-0.08892309162342561,"348":-0.059634706023385296,"349":0.07755159463223764,"350":-0.011378890590649785,"351":0.03507340599571363,"352":0.012766735378808616,"353":-0.022074778808899416,"354":-0.036703413399062544,"355":0.11594816239160215,"356":0.002135703590296808,"357":0.021710329256413977,"358":0.03417421871719579,"359":-0.03443218071342226,"360":-0.052928992709473065,"361":0.08648126810419997,"362":0.059545511114171376,"363":0.019552856111035875,"364":0.021142749933136123,"365":-0.007402878668515564,"366":-0.07587986940925948,"367":0.08145765790181624,"368":-0.05872849766518105,"369":-0.031611246210416284,"370":-0.1435158378616993,"371":-0.05237966254340428,"372":0.015963509932783122,"373":-0.026834649612162937,"374":0.019674985619358414,"375":0.044735238170815664,"376":-0.03658114366221003,"377":0.018991745693991948,"378":-0.013626694388799395,"379":0.027562196831856463,"380":-0.08408713080363094,"381":-0.10102265744238374,"382":-0.07077604049188352,"383":0.04701771460562603,"384":-0.10994747901353898,"385":-0.05092003589607308,"386":-0.0016198047818843091,"387":0.0035883875519453724,"388":0.05946953226677744,"389":-0.03835320209026352,"390":0.05932127525073702,"391":-0.06034066883570191,"392":0.041576669521504225,"393":-0.03037618740555915,"394":0.025000003076961215,"395":-0.1278781463513737,"396":-0.02560215702157754,"397":-0.14763844884456032,"398":0.006102782164694964,"399":0.035768922628985254,"400":0.0029928280358442623,"401":0.020989510891100658,"402":0.1119436880265752,"403":-0.05493434983750576,"404":-0.04738413281453796,"405":-0.13529491342282918,"406":-0.08802452443956887,"407":-0.03045287846234965,"408":-0.028330782028411022,"409":-0.04975417404617417,"410":0.01318668738491993,"411":0.03246814974406761,"412":0.03641427130754183,"413":-0.038683613789508076,"414":0.15557444251433206,"415":-0.07323252013784848,"416":0.004126384068046089,"417":-0.020783729785240918,"418":-0.14802060330174788,"419":0.016884425360143812,"420":0.04786966819299126,"421":-0.004747332106765428,"422":-0.0033060556858725432,"423":0.053968286308933994,"424":0.04700924581495629,"425":-0.09250878691224829,"426":0.022023701953032694,"427":0.02050582647248653,"428":0.11066005954049137,"429":-0.010018395380338848,"430":-0.12547777927747913,"431":0.08483890477446346,"432":-0.10929156955260376,"433":0.09418673276629753,"434":-0.035225051356210686,"435":-0.05135257980566007,"436":-0.01815740724071081,"437":-0.10868744456111532,"438":0.0017843288426505764,"439":0.044863991845815056,"440":-0.03647262176544384,"441":-0.030084303815175118,"442":0.08789630214489659,"443":-0.19370442469861185,"444":0.03140022436445823,"445":0.060510661462581924,"446":0.07356497771135036,"447":-0.005172614173681389,"448":0.009919893904447058,"449":0.053227156151797274,"450":-0.0928078161435542,"451":0.02067278925545448,"452":-0.06239071776574001,"453":-0.017538617186754424,"454":0.07389279277364458,"455":-0.1409158520923307,"456":0.0059113956562014645,"457":0.043517596763313834,"458":0.04793100769546428,"459":-0.020775253894324632,"460":-0.019693264379561953,"461":0.0738756512547622,"462":0.01357325441250691,"463":0.10848019014644782,"464":-0.025183757636227915,"465":-0.07573304878603457,"466":-0.03101145229196241,"467":-0.08272653956987604,"468":0.034355880719556475,"469":-0.08457869222890232,"470":0.04399544588965904,"471":-0.01357237818756722,"472":0.01977303242061044,"473":-0.05205166175869243,"474":0.0447875263370931,"475":0.040289722999443396,"476":0.008796884562179263,"477":0.022758628923308356,"478":-0.07870036999233192,"479":0.0005261003223132313,"480":0.04701420325383687,"481":-0.01713905890765459,"482":-0.035102835288833754,"483":-0.024937277863604383,"484":0.0029385461851543756,"485":0.01260122673691169,"486":-0.020950528239893382,"487":-0.02271463622014383,"488":-0.005520119125068136,"489":0.05681034273459537,"490":0.02297831494047754,"491":0.09191322846615635,"492":0.006102087251056013,"493":-0.03214514605636583,"494":-0.02672137527453927,"495":0.026849522945051982,"496":-0.011883611383551132,"497":-0.023969291287681202,"498":0.010982810082386482,"499":0.0021805185857910973,"500":0.03273628459388614,"501":0.02180079692657733,"502":-0.07092021475788117,"503":0.06677887600071512,"504":0.008617719272079034,"505":0.026671379474093603,"506":-0.006347596453520187,"507":0.025548015119922964,"508":0.11471258040842268,"509":-0.1275439281095081,"510":0.04203004505315193,"511":-0.01405437530294065,"512":-0.043286869552673635,"513":-0.060233473566503035,"514":-0.13338723665364102,"515":0.012217963277971255,"516":0.04036665300924782,"517":0.06661403281091013,"518":0.04700278024470578,"519":-0.05092397722606857,"520":-0.016284345565882638,"521":-0.05837762146904789,"522":-0.0460260654972121,"523":-0.0030269618828665666,"524":0.17220150560427314,"525":0.129960623625131,"526":-0.021119091889644268,"527":-0.04966527869325067,"528":-0.04661710882813557,"529":-0.03463303258055521,"530":0.03501251723219449,"531":0.08951466259840603,"532":-0.13100425759113177,"533":-0.005438430576849204,"534":0.031764061519945305,"535":0.019966522984223523,"536":0.09938878808156879,"537":0.00572411995252618,"538":0.15411553838633085,"539":-0.06751245692128424,"540":0.07554956224445661,"541":-0.15047412638136903,"542":-0.023765742336336777,"543":0.028955614305113148,"544":0.04039012843619565,"545":0.06736665984567888,"546":0.0030104047267691127,"547":-0.021298652305180542,"548":0.046454438305665584,"549":0.027799893303238534,"550":0.0743165648052331,"551":-0.035016812666033736,"552":0.13078756920054072,"553":0.004729980597011406,"554":-0.04406458750339627,"555":-0.0023330721322620982,"556":-0.0686059641034647,"557":0.012754338890802438,"558":0.027691083047436706,"559":0.11410667218792088,"560":-0.03670668970250696,"561":-0.043218408256443394,"562":-0.03245044097035968,"563":-0.061186460621976656,"564":0.0424677569580443,"565":-0.008595511487093836,"566":0.011003312503344954,"567":0.02856313305435316,"568":-0.010005287303376456,"569":-0.07997647118382112,"570":0.041273218569616556,"571":0.08386238863460388,"572":-0.01999404383467819,"573":0.009922843745305488,"574":-0.010382609709702733,"575":-0.0020271668562670546,"576":-0.018129465017838547,"577":-0.009007679015000917,"578":-0.024170810376470557,"579":-0.004567271336120964,"580":0.03494870587366484,"581":0.007285786633701347,"582":0.028273158710140016,"583":0.016742119073160464,"584":0.028393100918268684,"585":0.07105934203529421,"586":0.011917944150811636,"587":-0.00016936341161807685,"588":-0.03120990179140448,"589":0.04000316352481328,"590":-0.06580861973391199,"591":-0.016597212345493415,"592":-0.020122137221945623,"593":0.010995857994995637,"594":-0.03689372971700438,"595":0.11350276001996937,"596":0.04285747605604168,"597":0.07457761703722454,"598":0.014267611026985294,"599":-0.012300813336978406,"600":-0.0011652137866136338,"601":-0.0724120955362725,"602":0.02027957961913324,"603":-0.06493461091955177,"604":-0.07092976616678061,"605":-0.005989587825533522,"606":-0.08178699358823505,"607":0.0063428852436228375,"608":0.11210198049597145,"609":0.07887850947621675,"610":0.02772310622888458,"611":-0.03992595484177032,"612":0.0692150436342357,"613":-0.010423355330535204,"614":0.10296316958261742,"615":-0.027783762074508833,"616":0.09912975276758457,"617":-0.06967375083568061,"618":-0.012061365192499073,"619":0.01584650630177233,"620":0.12116251238942749,"621":0.025116495614738433,"622":-0.009793214085586224,"623":-0.008383261458737705,"624":0.025396326648103994,"625":-0.0912876982208957,"626":0.05863249550331193,"627":0.040709650976275415,"628":0.020266236936769242,"629":-0.03489513809450053,"630":-0.0036683990848790323,"631":-0.06698011247685232,"632":0.07555194401814813,"633":0.04620386549332667,"634":0.07943730212009792,"635":0.031574568173448496,"636":0.07380620225625947,"637":-0.04014300968884927,"638":0.008837174442734907,"639":0.04733342961277493,"640":-0.024876127681867404,"641":0.04415272490878621,"642":-0.00549142407438025,"643":0.030099801841847473,"644":-0.04592360462109596,"645":-0.038502520255814965,"646":0.03152880749690344,"647":-0.0883323105000316,"648":-0.05227992757735256,"649":-0.011420621933711498,"650":-0.009868767294115796,"651":0.004546089542048718,"652":-0.0032908718497981397,"653":-0.0028462570999004517,"654":0.04638547328358855,"655":0.05399154684315348,"656":0.007114366750105893,"657":0.011092999460093792,"658":0.005817045920771588,"659":-0.01003790651685374,"660":0.04629263577508631,"661":0.053567896565999064,"662":0.035854687645785616,"663":0.017825002242658605,"664":0.04493446023350726,"665":-0.05754705189234988,"666":-0.06215599024808936,"667":0.004944395338941242,"668":0.04358647356329557,"669":0.04845248575640605,"670":0.035449303348580825,"671":0.07706890507396605,"672":0.02870181011661602,"673":0.05263000187342462,"674":0.07271060711608222,"675":0.018034970062268466,"676":-0.011234652996778874,"677":-0.006156320189406422,"678":-0.012401011159488795,"679":-0.023220462420019856,"680":-0.03035172266765356,"681":-0.018090057874566603,"682":0.029270511352207415,"683":-0.0070494631887329864,"684":-0.004393178631017352,"685":-0.030836122639407545,"686":0.0733828274440416,"687":-0.006751971980891162,"688":0.03572268202648881,"689":0.006207820377264899,"690":-0.035031568269209376,"691":0.027196395601957205,"692":0.006910849171848248,"693":-0.017609378919558584,"694":-0.06601688394956985,"695":-0.03780825410354766,"696":-0.06757544784967831,"697":0.023454834734257888,"698":0.05352842778708959,"699":0.018387023384544957,"700":-0.029768075398327633,"701":-0.021419773454600718,"702":0.01600720913611579,"703":0.04996101328340426,"704":-0.04069041427661958,"705":-0.0272134120949348,"706":0.05396715181188141,"707":-0.046282685579977646,"708":0.022846816096877522,"709":-0.08838655225297236,"710":0.037467320277954685,"711":-0.04039679407587483,"712":0.025584260918423442,"713":0.01786889158595316,"714":0.0642336423296726,"715":0.08253748062365346,"716":0.07805520319400516,"717":0.005797082672366556,"718":0.02863853867347898,"719":0.00678922524700123,"720":0.0011389814081581174,"721":-0.014181199367445132,"722":-0.014217260493072752,"723":-0.061330625661994896,"724":0.01157739442746072,"725":-0.03348213980312116,"726":0.024166647730577365,"727":0.001917751735501484,"728":0.026003251421833743,"729":-0.04062750409103358,"730":-0.0072335770118971575,"731":-0.04169029157754771,"732":-0.10242309767430095,"733":-0.028733318303326327,"734":-0.020039592721853378,"735":0.038596941685571894,"736":0.0299549757749995,"737":-0.07168776293021643,"738":0.0017195909706413464,"739":0.011648338935151702,"740":-0.00894741184943952,"741":-0.008208991966083733,"742":-0.011082684404838707,"743":-0.030113236339805304,"744":-0.011310548138835237,"745":-0.05900643613024417,"746":0.005111685025000394,"747":-0.03708243900076641,"748":-0.05883279119047801,"749":-0.023985241722819985,"750":-0.010255350646944337,"751":0.038999613583992704,"752":0.015086574337282865,"753":-0.023588944109968576,"754":0.011334853321474853,"755":-0.06310574794870695,"756":-0.008166299709671176,"757":-0.04339051235749075,"758":-0.012099960497384,"759":-0.026706649287642072,"760":0.018694622506264438,"761":0.026317943013042012,"762":0.022049862124042034,"763":0.005375233703271696,"764":0.023110296614115157,"765":0.06121634555107816,"766":-0.019214910528279703,"767":0.003731772647868608}},{"sx":1,"sy":1,"depth":768,"w":{"0":-0.007412950838034663,"1":0.020820748060421026,"2":0.0004619128584038772,"3":0.05851013348108577,"4":0.027605821907085066,"5":-0.01742747562152017,"6":0.03477615951539202,"7":-0.026564686866833373,"8":-0.015398802852868014,"9":0.05750421488915431,"10":-0.067369348536388,"11":0.01577231337639403,"12":0.0718202839680747,"13":-0.0005441011424912743,"14":0.026247814225651117,"15":-0.002413332391079345,"16":0.0564229635951498,"17":0.041086619164241875,"18":0.023376424406695594,"19":0.03450750507170013,"20":-0.031186143187004377,"21":-0.059923158363553344,"22":-0.06044807748902428,"23":-0.04512739939900937,"24":-0.05240090713988649,"25":-0.0017588811118418872,"26":0.005531396767165287,"27":0.07341353896457975,"28":0.001277459933812715,"29":-0.0013212699245385036,"30":-0.028249096075758474,"31":-0.013551090451007752,"32":-0.032952559958215256,"33":-0.017334695742064792,"34":0.010249077461154096,"35":0.009940695508759834,"36":-0.041377217725819745,"37":-0.09037587745265506,"38":-0.03433242936087894,"39":0.008168199426458671,"40":0.021729784247073593,"41":0.016591266915310075,"42":0.013250246714301857,"43":-0.025616005039504248,"44":-0.03394873277098891,"45":0.046660899535744454,"46":0.07428994865235466,"47":0.022064824368407756,"48":0.045530366776052066,"49":-0.07039418463545698,"50":-0.013301550515350704,"51":-0.04851207797332454,"52":0.011565006181195981,"53":-0.006451416387829591,"54":0.0066416221916601815,"55":0.01070145363784521,"56":-0.025423901684419305,"57":0.011053509754559338,"58":0.01786016835496041,"59":-0.027434520496887944,"60":0.027978546674027365,"61":-0.023933481931251183,"62":0.02145235726989156,"63":0.02361078038268821,"64":0.008056777537048455,"65":0.03283831228637747,"66":-0.024422280765959908,"67":-0.0028420527711473637,"68":0.028722153173922616,"69":0.049304704479030494,"70":-0.023347876741652916,"71":-0.055875924274886135,"72":-0.018566217901367837,"73":-0.007901062218266367,"74":-0.03187365669026095,"75":0.020357494462379812,"76":-0.002417988530458279,"77":0.023848579150645675,"78":0.013425916504605876,"79":0.0378934523930857,"80":-0.003333253996263521,"81":-0.029074209669106354,"82":-0.07427743995952225,"83":-0.06494186841616548,"84":-0.02214035928395833,"85":-0.023004538925901222,"86":0.024628733841635653,"87":-0.04498519181598827,"88":0.013216764351589687,"89":-0.05208414045825338,"90":0.04770190968233966,"91":-0.02147025520924106,"92":-0.041988703034402546,"93":-0.04390455087604687,"94":-0.04508770583482608,"95":0.07574485544100754,"96":0.0033670264326607345,"97":-0.0070397029849004105,"98":0.02530937341451383,"99":0.00187809946750239,"100":-0.02260884415021854,"101":0.030407551308844753,"102":-0.01909235569496295,"103":-0.04471962087645643,"104":-0.025392397710869322,"105":-0.021698422820397974,"106":-0.011819147906834778,"107":0.03409293452985743,"108":-0.0227567198205847,"109":-0.03331126410216757,"110":0.005436572988249848,"111":0.013912076654299855,"112":-0.05547512864581496,"113":0.05845326100352068,"114":-0.031016675424342628,"115":-0.05516210125749111,"116":0.00742644844892027,"117":-0.014220478642597815,"118":-0.04574198322140811,"119":-0.0961590647090455,"120":0.0018248619790574396,"121":0.01709468437548844,"122":-0.10654425767122462,"123":-0.015944310431282933,"124":-0.0327250358921345,"125":-0.009882187834660149,"126":0.03234018740273922,"127":-0.03677884316657798,"128":-0.048474388102503506,"129":-0.03150490692595521,"130":-0.06099517291749347,"131":-0.021099205487253594,"132":0.058079356965081166,"133":-0.01274760646069499,"134":0.010345713170865689,"135":-0.06256948257636014,"136":0.03658082929883632,"137":0.02021380895866087,"138":0.009584669632430159,"139":-0.0742100139795175,"140":-0.018357991941099355,"141":-0.08822509781839492,"142":-0.027650298354230888,"143":-0.007078944559848862,"144":0.02315356405464646,"145":0.036503675469457424,"146":0.025716730677746106,"147":0.0357998844497057,"148":0.022045994437420335,"149":0.042654267073490744,"150":-0.05597400379507624,"151":-0.008024967373261815,"152":0.03138508926244736,"153":0.05004644083422459,"154":-0.05297343553085771,"155":0.040537510267291,"156":-0.0321703878003264,"157":-0.012346033738716244,"158":-0.028201500071786175,"159":-0.043713415943931855,"160":0.010482056198017791,"161":-0.07945681609749293,"162":0.0063942538858151295,"163":0.024090174883590144,"164":0.018770369846142117,"165":0.03950731698188336,"166":0.03465725250790756,"167":-0.012799619131206747,"168":-0.009464213515913254,"169":0.02016186280816754,"170":-0.022232823361050518,"171":-0.012781055150263319,"172":-0.020368289282067877,"173":0.019324226246384274,"174":-0.01369864624067236,"175":-0.02902496100040576,"176":0.025510604938432154,"177":0.023168929402742126,"178":0.018850394912432886,"179":0.020480366124082522,"180":0.02841390112130056,"181":-0.006114716426094434,"182":-0.03051202473220768,"183":-0.015736899594793893,"184":0.011582355582622066,"185":0.013268604176737187,"186":0.05505240609733465,"187":-0.018090758462555093,"188":0.018683260330090736,"189":-0.002662817217237524,"190":-0.03972593438498677,"191":0.0367205623298559,"192":-0.004985669477341102,"193":-0.05262027760388461,"194":0.018681067147679177,"195":-0.020030644515775704,"196":-0.01384877042092271,"197":0.04299619578552086,"198":0.0341627475709311,"199":0.010123486863179189,"200":0.07656984940513724,"201":0.03049038864806752,"202":0.0252640059583161,"203":-0.0032705300616219487,"204":-0.0428438215514701,"205":0.0017291549211642615,"206":-0.0645063745665242,"207":-0.007070913843285509,"208":-0.03855547660034546,"209":-0.04119159594304198,"210":-0.008678255857925773,"211":-0.03280768156100168,"212":-0.03016218715602805,"213":0.0007255340877642549,"214":0.02871985575845361,"215":-0.02199374936214403,"216":-0.06924571683452363,"217":-0.10497714481532132,"218":-0.01031575393282947,"219":-0.01566235233217382,"220":-0.021971517167630197,"221":0.0056050382876190324,"222":0.013410484114968459,"223":0.0030662305776229582,"224":0.06280925143868724,"225":0.026628678994367872,"226":-0.05609327409048621,"227":0.05119052719565053,"228":0.06617005211699946,"229":0.03398502503693329,"230":-0.07065130361803622,"231":0.04356619907887782,"232":0.016427553840924657,"233":-0.01734403655119706,"234":-0.03217054115274514,"235":0.023485882482406337,"236":0.08390564212990263,"237":0.0030132861687411005,"238":-0.021772692527572347,"239":0.004536767455682773,"240":0.025558147883749324,"241":0.02143980231431902,"242":0.03445120427191481,"243":-0.0439364950455471,"244":-0.032994444308403766,"245":-0.07126582157238212,"246":-0.043422676569150984,"247":-0.03255847472762548,"248":0.016541659210571612,"249":0.06276952066282149,"250":0.02859201674483931,"251":0.03949193669466042,"252":0.07660678736634602,"253":0.00221915891337538,"254":-0.020842584294659367,"255":0.024633186454000665,"256":-0.05761870800958053,"257":-0.040558110931187455,"258":-0.06188876981172774,"259":0.002201914484858506,"260":-0.045234957074796925,"261":0.092116132808216,"262":0.011523145844809762,"263":0.07089674068656093,"264":0.017444847218529447,"265":0.006767574007426292,"266":-0.01656310704682907,"267":0.010211458066012244,"268":0.023413069828232755,"269":-0.04149222097079495,"270":-0.05962985737390313,"271":-0.02398959948190465,"272":-0.045740008307094536,"273":0.010744216192788938,"274":-0.014925811380678356,"275":0.012013876651447273,"276":-0.018701635317330906,"277":0.004878360074310243,"278":0.03605668674542595,"279":0.04816815269991439,"280":0.04384945293705978,"281":0.05703699446980733,"282":0.010939660507322825,"283":-0.019823754008914073,"284":-0.07061362411414791,"285":0.01901170756987307,"286":0.022136009282831697,"287":-0.027783560867432132,"288":-0.042814350277403566,"289":0.03907749926233101,"290":0.05072537084157228,"291":0.07623976358251723,"292":0.011592080466149304,"293":0.007861049422046516,"294":0.023646022739819132,"295":-0.014897232034911608,"296":0.027126833494142865,"297":0.009525649965314503,"298":-0.06229828996581325,"299":-0.03567813151377687,"300":-0.009131040481186526,"301":0.01116389758268088,"302":0.023367405857505248,"303":-0.07203267551715106,"304":-0.011563442677120778,"305":-0.049067685780011944,"306":0.027828497187717103,"307":0.019641972259313155,"308":0.024556346976702927,"309":0.03400960324182922,"310":-0.00910257564682504,"311":0.01561858213865938,"312":0.013173350002606773,"313":-0.02376580977461648,"314":0.004309377194531012,"315":0.008817396964913555,"316":-0.11899203201354168,"317":-0.019117895497248148,"318":0.048163289419485,"319":0.08876904438828699,"320":0.08989497812221886,"321":0.050918674940497934,"322":0.08480167006679053,"323":-0.015332076776998762,"324":-0.0158688047893669,"325":-0.009279752583318908,"326":0.06837024110337353,